["0.14748791", "0.21842162", "-0.41161168", "-0.062747866", "0.021960871", "-0.1615555", "-0.06652824", "0.3441987", "0.39671025", "0.025249224", "0.026049713", "-0.075029515", "-0.058002606", "-0.120057665", "-0.49086004", "-0.04431504", "-0.498033", "0.11689285", "-0.046995267", "0.11656124", "-0.13950135", "-0.22019523", "0.4549596", "0.060138065", "-0.021127801", "0.16006587", "0.05967867", "-0.344389", "-0.37342304", "-0.023807373", "-0.021528892", "0.076912686", "0.059621245", "0.12421266", "0.47913116", "0.04366569", "0.48652", "-0.1366122", "0.061907317", "-0.114789985", "-0.2376835", "0.12397318", "-0.0799798", "0.027250428", "0.0010706156", "-0.030747356", "0.41550896", "0.08129752", "-0.16226964", "0.10315578", "-0.14025255", "-0.06098078", "-0.0906995", "0.22560649", "0.08434004", "0.18958694", "0.08472206", "0.3587264", "-0.32509908", "-0.12082318", "-0.07418432", "0.040082797", "-0.012269218", "-0.01716495", "-0.23374617", "-0.08587641", "0.12972228", "0.12134895", "-0.2442547", "0.091721386", "0.08189609", "0.12232408", "-0.16422911", "-0.13577184", "0.259542", "-0.020244494", "0.093096346", "-0.09208039", "0.077724725", "-0.030370291", "-0.08140323", "-0.09997158", "0.12995619", "0.14405732", "-0.084424846", "0.0062636603", "-0.03513118", "0.12441545", "0.24610206", "-0.001434743", "0.0006496804", "-0.30109632", "0.110453606", "-0.0492758", "0.08944359", "0.021730814", "0.07190945", "-0.29540727", "0.083685495", "0.12548715", "-0.01186464", "-0.040260732", "0.0073490795", "0.18102072", "-0.08723792", "-0.048953984", "-0.14599983", "0.23115689", "0.22517137", "-0.17164454", "-0.020198403", "-0.11745255", "0.25483242", "-0.04093711", "0.041186202", "-0.021913221", "-0.053231973", "-0.013601687", "-0.062075492", "-0.01452091", "0.13447708", "0.17717926", "0.044487406", "-0.11435008", "0.11094785", "-0.11464768", "0.02264035", "-0.026391942", "-0.16628246", "0.21217433", "-0.0006680815", "-0.07791447", "-0.0908117", "0.14502163", "0.04657896", "-0.015620113", "0.14482456", "-0.061656643", "0.14212516", "-0.028874975", "-0.15617605", "0.04113552", "-0.17293775", "-0.053208828", "-0.03372156", "0.037557293", "-0.02466769", "0.037876945", "-0.006610622", "0.015758026", "-0.07808795", "-0.014085893", "0.085059136", "0.22664115", "0.11171577", "0.022293227", "0.14223574", "-0.0639011", "-0.13659531", "0.09395619", "-0.20393993", "0.115648575", "-0.037556935", "0.046462134", "0.14646752", "-0.35662562", "0.18354754", "-0.1663206", "0.15165001", "0.29519105", "0.03312801", "0.10606782", "-0.049570475", "-0.12564112", "-0.31072515", "-0.12832278", "-0.014929242", "-0.14060463", "0.05326056", "0.08515344", "0.22371136", "0.051173355", "-0.12123628", "-0.008178984", "0.0076869666", "0.31994197", "0.0543128", "-0.05573788", "0.01242094", "0.0017594497", "0.32601315", "0.0032863533", "0.049123712", "-0.09776694", "0.26623285", "-0.13087769", "-0.09640285", "0.022995347", "-0.10375755", "0.034912653", "0.18075283", "-0.116614446", "0.28055292", "-0.17429633", "0.021601174", "-0.12302187", "-0.28205237", "-0.062973745", "-0.09060256", "0.14887375", "0.0551088", "0.022811085", "-0.11320772", "-0.117848575", "0.1370756", "0.066069655", "-0.042022023", "-0.07411488", "-0.0054393527", "-0.079094075", "-0.03390953", "-0.029552642", "0.007984833", "0.0469155", "0.056099165", "0.020757347", "-0.03728774", "-0.06077351", "0.048535723", "0.15612653", "-0.20336896", "-0.04375729", "0.14910948", "-0.01465515", "0.10572468", "0.05995714", "0.027682874", "-0.046941433", "-0.055637557", "-0.12518226", "0.14673953", "0.2298483", "-0.08771948", "-0.016634036", "-0.13198099", "-0.118128374", "0.05322339", "-0.17124428", "0.058849048", "0.05655171", "-0.2255489", "-0.07535323", "0.1676669", "0.054101743", "0.074560106", "0.0112097", "0.0030009605", "-0.08295556", "-0.0076713366", "0.0064864014", "-0.042820435", "-0.026659738", "-0.061503638", "-0.13157766", "-0.09229932", "0.0020476088", "0.08353138", "0.114802204", "-0.023497766", "0.14585175", "0.100172445", "-0.046459083", "0.101429656", "-0.002248158", "0.18740338", "-0.052592747", "0.101797394", "0.05956455", "-0.1526278", "-0.08198314", "-0.10465763", "0.07880082", "-0.12361582", "0.08905496", "0.0048601856", "0.084520936", "0.011933647", "-0.015367015", "-0.022665774", "-0.24747656", "0.04496014", "0.040484484", "0.008106604", "-0.072443075", "-0.045102157", "-0.06426291", "0.014045506", "-0.14655071", "-0.020051988", "-0.008240855", "-0.105938494", "0.008956816", "0.13948238", "-0.049988598", "0.11100311", "-0.11509303", "-0.15422653", "-0.0011351635", "0.03626137", "0.09876279", "0.1597409", "-0.06866128", "0.05664909", "0.05826552", "0.06345778", "-0.20334736", "0.05168024", "0.23114508", "0.35475838", "-0.10581919", "-0.027951367", "0.00717505", "-0.083271004", "0.13724041", "0.18349998", "0.13393728", "-0.029997583", "0.25186917", "-0.14351709", "0.050744172", "-0.099066995", "-0.16705647", "-0.14296266", "0.14431512", "-0.052629743", "-0.21202353", "0.06418483", "0.12970148", "-0.07144879", "-0.07504499", "0.038826425", "-0.09117485", "-0.13963829", "0.0014620583", "0.019872846", "-0.07939408", "0.048606366", "0.07955004", "-0.002216561", "0.06450374", "0.19294849", "-0.038420856", "0.35431528", "0.00017649498", "0.015679454", "-0.12346541", "0.24056731", "-0.28601187", "0.091372825", "-0.20305137", "-0.06376769", "-0.26802114", "-0.059348073", "-0.15908295", "0.042227235", "-0.10053029", "-0.052463155", "-0.16232792", "0.20202442", "0.18369067", "0.16187873", "-0.17306769", "0.025359092", "0.2640765", "0.24471146", "-0.19311154", "0.038141064", "0.20122649", "-0.008466098", "0.12123416", "-0.10765093", "-0.14482607", "0.13703758", "-0.13814293", "0.016177485", "0.17265421", "0.020586435", "0.118885234", "0.11216049", "-0.29819888", "0.106334925", "0.019634118", "0.237741", "-0.085139014", "0.19691475", "0.12264002", "0.16969594", "-0.076084", "0.20357834", "0.091643475", "0.16765247", "-0.22840047", "-0.09045892", "0.018157804", "0.26078057", "-0.13190836", "-0.14820984", "0.0052572177", "-0.13996536", "-0.14212003", "0.102302074", "-0.18549694", "0.033606935", "-0.18248944", "-0.22147867", "0.17608622", "0.23745713", "-0.033569705", "0.11484416", "0.15994342", "-0.14567159", "-0.16307288", "-0.0796857", "-0.25100598", "0.24276786", "0.014501805", "0.2832346", "-0.0103041185", "-0.07663343", "-0.117209874", "-0.08214488", "0.14135912", "0.18384838", "-0.105864435", "0.03550058", "0.12834507", "0.16867554", "-0.286177", "-0.009999301", "0.088416494", "-0.16693236", "0.13904344", "-0.07531142", "0.12994033", "0.15206958", "-0.010236015", "0.32118672", "0.02241601", "-0.044654448", "0.18405357", "-0.20383973", "-0.20179218", "-0.14011237", "0.09355023", "0.3224721", "0.0113292625", "-0.21782249", "0.10876348", "-0.17688611", "-0.035381895", "-0.01925156", "-0.1561349", "-0.09087646", "-0.10852583", "-0.004283523", "-0.029763365", "0.15988426", "0.16475035", "0.10093197", "-0.15643178", "-0.109588146", "-0.09846876", "0.06049325", "0.13801172", "0.30963695", "-0.29050836", "-0.054076687", "-0.19317187", "-0.18610631", "0.017141102", "-0.027442228", "-0.10342743", "0.18476593", "0.037120085", "-0.064742155", "-0.3037171", "0.07666643", "0.1161858", "-0.14932044", "-0.21460465", "-0.15758584", "0.07020771", "-0.08973563", "0.12933078", "-0.22156203", "0.10373974", "0.1171372", "0.17502315", "0.10900312", "-0.07230741", "-0.16338865", "0.26081145", "-0.069529176", "0.22704919", "-0.027790925", "0.17696588", "0.19954075", "-0.14673361", "-0.13928983", "-0.12183048", "-0.09927353", "0.04373203", "-0.114042476", "-0.082512975", "-0.16609672", "-0.07381356", "-0.05262452", "-0.055314023", "0.058526654", "0.12175218", "-0.007557338", "0.031569723", "-0.02200614", "-0.05964266", "-0.20609695", "0.029440409", "-0.12129888", "-0.04550358", "0.010362227", "-0.04796684", "-0.07954405", "0.02564745", "-0.051305193", "0.023763329", "-0.030492097", "-0.13018996", "0.0228314", "-0.02499474", "0.11059331", "-0.009724132", "-0.067045055", "-0.06248368", "0.025970275", "0.016022803", "0.028815513", "0.03291642", "0.049585808", "0.20134786", "0.016392116", "0.16437604", "-0.08949339", "0.029560637", "-0.12818715", "0.10119099", "0.0866201", "0.020696174", "0.008610351", "-0.060756642", "0.06241091", "0.022808393", "-0.05306853", "-0.14208381", "-0.061381772", "-0.14584753", "-0.12928703", "0.25990704", "0.10297008", "-0.26908556", "0.0053971885", "-0.051072694", "0.12705214", "-0.014890631", "-0.04790636", "0.109912574", "-0.09305185", "0.116769545", "0.085083306", "0.035368424", "-0.16631041", "-0.18340053", "-0.20447521", "0.037149798", "0.040317442", "0.22553383", "0.19001932", "0.1604324", "-0.08251028", "-0.25718468", "0.10550247", "0.10336856", "0.19893937", "-0.035861745", "-0.03842494", "-0.1327473", "0.058377597", "0.15935908", "0.15773267", "-0.030512389", "0.07811763", "-0.011317554", "-0.02138537", "0.0034783327", "-0.097213835", "0.0641165", "-0.057152778", "0.17142189", "0.18661512", "-0.04907191", "-0.09157341", "0.08158784", "0.1101214", "0.07619261", "0.017939985", "0.027211173", "-0.12563157", "-0.007086213", "0.023833567", "-0.02375853", "-0.13669915", "-0.09116173", "0.052185763", "0.057347868", "0.11986775", "-0.29259196", "-0.12379477", "0.04804707", "0.10327657", "0.054190796", "-0.119806975", "0.24897063", "-0.099032275", "-0.116543315", "0.17894801", "-0.00991502", "0.15090014", "-0.0922507", "0.07453844", "0.06874852", "0.035870533", "0.034755133", "0.15617116", "-0.05117172", "0.047108386", "-0.087348945", "0.15170285", "-0.05494724", "-0.052035768", "0.092189535", "-0.03208484", "-0.04323269", "0.26465568", "-0.1262405", "-0.24240142", "0.00063754467", "0.11802152", "0.013389859", "-0.04532219", "-0.12257069", "-0.030138249", "-0.14844388", "0.17411792", "0.010860185", "0.13645144", "0.015184598", "0.18816812", "0.055930533", "-0.10679213", "-0.055120043", "0.17491291", "0.22008033", "-0.15806457", "-0.027873892", "-0.12284836", "0.16908894", "-0.20634423", "-0.18121552", "-0.17901911", "-0.04668247", "0.0924678", "0.04702881", "0.18553242", "0.04716181", "-0.05966266", "0.14731786", "0.0045494977", "0.13862735", "-0.2097761", "0.08813666", "-0.022335866", "0.21704423", "-0.23933622", "0.0024839316", "-0.07542334", "0.14249256", "-0.015695427", "0.05966118", "0.14415571", "-0.17535777", "0.03219145", "-0.11695589", "0.19970234", "0.016743138", "-0.18984438", "0.01513423", "-0.067225724", "-0.06724823", "0.0075754994", "0.19064227", "-0.039163783", "-0.07240081", "0.12677692", "-0.03745579", "-0.021011984", "0.02916734", "-0.2342963", "0.06944541", "0.07217143", "0.051939968", "-0.11508366", "-0.19582944", "0.08261654", "0.07352073", "-0.14405991", "-0.019187333", "-0.21413253", "0.13648124", "0.15636021", "0.01498043", "-0.049221016", "-0.14677931", "0.047502134", "0.118052095", "-0.081788674", "-0.17172842", "-0.07237065", "0.03558329", "0.076952524", "-0.05229477", "0.2171007", "-0.117788136", "-0.15105458", "-0.09165311", "0.0972536", "0.035436608", "-0.17123249", "0.027366454", "0.009808591", "0.086947836", "-0.045898195", "0.03274958", "0.20323305", "0.09308885", "-0.002945936", "-0.08321978", "0.04453349", "-0.011689117", "0.1124576", "0.037917826", "0.20493771", "0.14205852", "-0.11657284", "-0.18652835", "-0.18457565", "0.029740497", "0.0044549718", "-0.33228785", "-0.11621615", "-0.1685216", "0.049171284", "0.37148643", "-0.17870559", "-0.22405913", "-0.30731237", "-0.1841853", "-0.23407808", "-0.18997717", "-0.13313997", "-0.30203882", "-0.073736824", "-0.018773168", "0.11501322", "-0.04711382", "0.18248932", "-0.08144474", "-0.0209759", "0.2751874", "0.30934167", "-0.06381814", "-0.13718079", "-0.009018494", "0.1113961", "-0.06483957", "-0.1073948", "0.024048263", "-0.10104581", "-0.16761415", "0.099166796", "-0.1067385", "-0.008746564", "0.22021478", "0.22671263", "0.21132472", "0.41047442", "0.22635847", "-0.23796342", "0.006130851", "-0.00040088355", "-0.0003105194", "0.013221359", "0.27555928", "-0.118519515", "-0.15509945", "-0.044327915", "-0.16582225", "-0.10154745", "0.10334265", "-0.12287031", "0.15882128", "0.121580176", "0.18979312", "0.11193331", "0.10623612", "0.056362342", "-0.05851043", "-0.017153399", "0.10327052", "0.10478618", "-0.1302613", "-0.1747132", "0.10404943", "-0.065677255", "0.07780137", "0.052885734", "-0.025517605", "0.15319343", "-0.039032158", "0.11624459", "-0.078763805", "0.13064004", "0.09007587", "-0.029620593", "0.04618461", "0.0069120387", "-0.16208453", "0.058136653", "-0.21695417", "0.09678038", "0.08448087", "0.12815295", "-0.022683384", "-0.16561373", "-0.005795188", "0.16223006", "-0.14497249", "-0.037744205", "-0.02034207", "-0.19180974", "0.13959002", "0.15040717", "0.071099825", "-0.3556252", "0.07536977", "-0.1393728", "-0.37439704", "-0.07926736", "-0.39010516", "0.3380072", "-0.14465636", "0.017576875", "0.012101277", "-0.10429428", "0.15539585", "0.10239168", "-0.29533228", "-0.23692782", "-0.16240075", "0.09771088", "-0.32284534", "-0.06456295", "-0.15913932", "0.15790537", "0.0065657194", "0.003108956", "0.14699413", "0.14985564", "0.4297175", "-0.18469216", "-0.17246172", "0.07784332", "-0.20571731", "0.40606272", "-0.11366635", "-0.2800076", "0.16253936", "-0.118365176", "-0.06531283", "0.16162048", "0.1461901", "0.17674932", "-0.23120402", "0.41836274", "0.009299604", "0.41103613", "0.25517777", "0.113622166", "0.07858417", "-0.17706801", "-0.100353904", "-0.20709744", "0.046476305", "-0.044349194", "0.15848", "-0.10105431", "0.116792545", "-0.085595004", "-0.0078233015", "0.3468179", "-0.0040730564", "0.21186893", "-0.00483545", "-0.040279824", "0.16494904", "-0.057442024", "0.17010987", "0.13526715", "-0.37846965", "0.07187034", "-0.13312499", "0.112035304", "0.20605083", "0.26773202", "-0.013244126", "-0.2027274", "0.02349128", "0.02953025", "-0.019245142", "0.028258486", "0.015709015", "0.12949006", "0.01152518", "0.2467663", "-0.10159569", "0.13623522", "-0.14051093", "0.2264273", "-0.03240874", "-0.13305892", "0.03279728", "-0.20359696", "0.021636326", "0.03679994", "0.091614924", "-0.12966028", "-0.21115498", "-0.037508313", "0.050344493", "-0.03862205", "-0.03899379", "-0.19894615", "0.03216432", "0.17392083", "-0.089579105", "-0.12744093", "-0.0694423", "-0.21250339", "0.22366506", "-0.266762", "-0.10955969", "0.02410499", "-0.15677986", "-0.22391891", "-0.1276264", "-0.076591626", "0.14349034", "0.21022668", "-0.1493981", "0.002842911", "0.15547809", "0.2122749", "0.06216287", "0.09398928", "-0.13389322", "-0.11835947", "-0.15185432", "0.21372266", "0.16122094", "-0.0701118", "-0.09533597", "0.15120281", "0.023026591", "0.1768778", "-0.18183945", "-0.1569808", "0.053536166", "-0.24301213", "-0.12942457", "0.11937898", "-0.11918971", "0.049804587", "0.04689902", "0.34391943", "0.07574637", "-0.02448755", "0.14368886", "0.02754597", "0.056000523", "0.20655115", "0.14016712", "-0.15754065", "0.13168424", "-0.23581626", "0.16838503", "0.0072608544", "-0.16514714", "-0.077181995", "0.17160533", "-0.14285481", "0.09923353", "0.07167051", "-0.11813741", "0.08219652", "0.044815566", "-0.037531592", "0.09394597", "0.08949456", "-0.068038605", "0.046056885", "-0.10526103", "-0.043171536", "-0.108657464", "0.15961272", "0.16484216", "-0.053303942", "0.061416373", "-0.14088461", "0.061899997", "0.03852461", "-0.15434286", "0.08035315", "-0.121939965", "0.10340292", "-0.09472875", "0.059930228", "-0.023297025", "-0.19972448", "-0.12942262", "-0.17208359", "0.06680902", "0.06880909", "-0.083640814", "0.2663552", "0.059664223", "-0.18932463", "-0.0216295", "-0.17829914", "-0.12089057", "-0.21158952", "-0.11309117", "0.15980019", "-0.07626805", "-0.008835074", "0.1136814", "-0.066019475", "-0.07019675", "-0.12763926", "-0.0054835505", "-0.062012702", "-0.060805235", "-0.1331281", "0.0154994745", "-0.13394803", "0.01280409", "0.10326277", "-0.042096335", "0.021441292", "0.0009260142", "-0.09355941", "-0.07525094", "0.016423205", "-0.05330431", "-0.0012922407", "0.06528283", "0.043028675", "0.23027648", "0.06490431", "0.075098954", "-0.24349837", "-0.041989204", "-0.001392242", "0.057249658", "-0.0129450625", "-0.12345416", "0.0021054237", "-0.11716832", "-0.15304632", "0.106865816", "-0.02871327", "-0.23074783", "-0.13967459", "-0.093295954", "0.08395917", "0.09291554", "-0.10371848", "0.09709565", "-0.13042448", "0.16474673", "0.02354582", "0.12641141", "0.03099959", "0.03470639", "-0.14652294", "0.21045682", "0.14656217", "-0.14721791", "-0.023446115", "0.046297602", "0.03510823", "-0.14898068", "-0.15857248", "-0.12041828", "0.047669526", "-0.031822722", "-0.038405728", "-0.0012055673", "0.07278433", "-0.09663726", "0.01834463", "0.05143937", "0.13424563", "0.06324046", "0.081615", "0.11632129", "0.05948422", "-0.013961753", "-0.12120481", "0.0765402", "-0.08748088", "0.036073536", "-0.012005243", "0.002498801", "-0.1159096", "0.02607187", "0.028759176", "0.21607108", "0.04753707", "0.004520367", "0.06745836", "-0.17160487", "0.030811315", "-0.19545336", "-0.037266582", "-0.15640129", "-0.09765732", "-0.06318826", "-0.115242325", "0.036914818", "-0.1842047", "0.0006205774", "-0.075693436", "0.15229978", "0.02073658", "0.050717022", "-0.06316957", "-0.055031016", "0.14678459", "0.009406881", "0.1269478", "-0.03598074", "-0.1639162", "-0.0507595", "0.13223256", "-0.048461724", "-0.026882486", "0.08687903", "-0.060551077", "0.1138264", "-0.047184538", "0.10710971", "-0.17185609", "0.14487413", "0.03943504", "0.20890407", "0.07338577", "0.0885311", "0.05452823", "-0.22500724", "0.15057428", "0.011858312", "-0.14502251", "0.06862989", "0.17079921", "-0.028756345", "0.2000847", "-0.12765044", "-0.065925", "-0.13132116", "-0.08796323", "-0.13837364", "-0.019403681", "-0.034028996", "-0.06654065", "0.047659915", "0.12646343", "-0.09245755", "-0.019937158", "-0.12651882", "-0.04332446", "0.09870609", "-0.042651325", "0.02361999", "0.17231598", "0.13597004", "-0.1927849", "0.025131537", "-0.04764394", "0.00475479", "0.043621775", "-0.068465695", "0.15855378", "-0.07980985", "0.08176903", "-0.012353786", "-0.03784621", "0.01797888", "0.02405623", "-0.07075952", "-0.16391489", "-0.046038184", "0.026988402", "-0.12492023", "-0.071741305", "0.0088811", "-0.074908204", "-0.057254598", "-0.094493486", "-0.11280432", "0.11980629", "-0.23888509", "-0.16784544", "-0.002651807", "-0.02172942", "0.15151131", "0.049969506", "0.10056659", "-0.21822825", "-0.025966076", "-0.014384213", "-0.16135891", "0.12400654", "-0.103425734", "-0.1322253", "0.030787399", "-0.06891715", "0.11990099", "0.059525996", "-0.028596783", "0.002896074", "-0.08596763", "-0.09540607", "0.10928737", "-0.06582608", "0.051385444", "-0.11283407", "0.11461192", "0.03935986", "-0.09448226", "-0.17546044", "-0.030189788", "-0.040461384", "-0.17348894", "-0.0433191", "-0.056062587", "0.059188165", "-0.004880521", "0.10357188", "0.012918486", "0.10942439", "-0.05111262", "0.039151404", "-0.03506201", "0.01757984", "-0.012256635", "0.007376734", "0.045611914", "-0.17694542", "-0.033489723", "-0.14676799", "-0.02177251", "-0.090683006", "-0.094396055", "-0.05855298", "0.009033821", "-0.13543661", "0.120843604", "-0.007785116", "-0.16229258", "-0.10407299", "-0.05531356", "0.12654512", "-0.029062761", "-0.14247373", "0.0988415", "0.0069878297", "-0.13327898", "0.02001257", "-0.015779143", "-0.08960941", "-0.0015692174", "-0.032382485", "-0.10072123", "0.040367734", "-0.111423895", "0.11813729", "-0.119134076", "-0.048497226", "-0.09839425", "-0.08535468", "0.17586249", "-0.0039807647", "-0.10407099", "0.0048924778", "-0.08476624", "-0.1987192", "-0.09839782", "0.07538758", "0.13834663", "0.09340193", "-0.24755535", "0.11306627", "-0.22426721", "-0.12992026", "-0.016554164", "0.11001315", "0.06363802", "-0.10074804", "-0.05021767", "-0.050607365", "-0.011252599", "-0.082477994", "0.0014267715", "-0.104243234", "0.1824922", "0.13010065", "-0.022992112", "-0.029596169", "-0.022525007", "-0.08025897", "0.098563485", "0.124531545", "0.10220145", "0.11645194", "0.12531897", "0.10268798", "-0.16020668", "-0.07065347", "-0.04123188", "0.07002252", "0.118940696", "-0.07360038", "0.041053258", "0.0968338", "-0.18119064", "0.035504088", "-0.15849607", "0.07771348", "-0.17666247", "-0.09461341", "-0.0040080864", "-0.056813706", "-0.08401224", "-0.012587957", "0.13398267", "0.09746555", "-0.0630106", "-0.023423543", "0.005251084", "-0.17842375", "0.030542785", "0.16858359", "-0.038066253", "-0.0035008246", "0.00512941", "0.04225197", "-0.061613683", "-0.14893273", "0.047167774", "-0.16765714", "-0.14317779", "0.018398486", "-0.079336025", "-0.0052730497", "-0.00903586", "-0.06916083", "-0.02782801", "0.09886568", "-0.16639338", "-0.13046008", "0.014324573", "0.10782053", "0.022512002", "0.054839227", "0.03395175", "0.13468666", "-0.029112348", "0.04102933", "0.081777185", "-0.19667125", "-0.01284038", "-0.09816266", "-0.0036744769", "0.0850146", "-0.09991715", "-0.072896115", "0.14531766", "0.13914268", "-0.046978503", "0.14988813", "0.14742395", "-0.013723895", "0.13014887", "0.030414885", "0.12453838", "0.019243862", "-0.09524761", "0.09528656", "-0.057725318", "0.13987345", "-0.12657657", "-0.030639686", "-0.05019212", "0.11033498", "0.12482332", "0.08158348", "0.048858255", "0.18739456", "-0.02083527", "0.14733098", "0.20457906", "0.13043213", "0.0053782943", "0.05940516", "0.032390475", "-0.1839369", "-0.07275035", "-0.094875984", "-0.05239538", "0.061129477", "0.13528809", "0.024596984", "-0.16875733", "0.23469023", "-0.013466522", "-0.015294783", "0.037470616", "0.028554264", "0.0691625", "0.06403152", "-0.045564126", "-0.15862429", "-0.085576676", "-0.033676594", "0.005457529", "0.13591114", "-0.117594466", "-0.15761101", "-0.049901057", "-0.051255118", "0.16461019", "0.15244596", "-0.037258513", "-0.062351607", "-0.07682243", "-0.10977871", "0.14160807", "0.09850036", "0.022315355", "0.19551249", "0.11867423", "-0.09756434", "0.068756096", "-0.049723897", "0.14749265", "-0.08694459", "0.025970753", "0.09699414", "-0.12350559", "0.09259889", "-0.13247852", "0.047564596", "0.24054758", "-0.07237075", "-0.13427861", "-0.10752849", "-0.039393988", "0.13074127", "-0.022014482", "0.08716531", "0.09668117", "-0.13457502", "0.072038695", "-0.21857502", "-0.13471162", "-0.10328421", "0.085600056", "0.09572538", "-0.109238125", "-0.05047561", "-0.11405143", "-0.120393105", "-0.1324347", "-0.0061301333", "-0.009526362", "-0.13899644", "-0.1656886", "0.018521858", "0.076133184", "-0.06632129", "-0.113902725", "0.17175736", "0.16677411", "-0.14482261", "0.047657933", "0.052966096", "-0.024949877", "0.011551004", "-0.10735712", "0.06943157", "0.1728645", "0.024287336", "0.14771979", "0.17983134", "0.09063136", "-0.009373147", "-0.008174522", "0.04337164", "-0.102355525", "0.2083075", "-0.21419844", "0.07735161", "0.032543268", "0.080664136", "0.16131343", "-0.15469308", "0.09662336", "0.06375851", "-0.050425373", "-0.024180418", "-0.15111741", "-0.14473978", "-0.12809096", "-0.19130647", "0.058001287", "-0.058192115", "-0.109356984", "0.10669998", "0.14415097", "0.13619907", "0.17827734", "-0.14993966", "0.02331211", "-0.16106898", "-0.35403407", "-0.109628126", "-0.07290864", "0.017093355", "0.056299135", "0.055119913", "-0.09462693", "-0.1097677", "0.22117499", "0.025178136", "0.009818893", "0.06300188", "0.034304902", "0.059623122", "0.03670219", "-0.109686464", "-0.10261194", "-0.027858177", "0.14527197", "0.21513923", "0.044148", "-0.07320802", "0.111032", "0.032285646", "-0.1507107", "0.08306574", "0.06609105", "0.16984674", "-0.11424066", "-0.18341585", "0.010841904", "0.16389498", "-0.014245894", "-0.037406605", "-0.0092002945", "-0.02063363", "-0.12733538", "-0.039276477", "-0.16262625", "0.14423425", "-0.09409079", "0.002619093", "-0.13325274", "-0.079346344", "0.0065668407", "-0.038924355", "0.013576271", "0.021753754", "0.053549957", "0.08406343", "-0.04948348", "0.16740793", "-0.036933087", "-0.024710266", "-0.0051133353", "0.114602596", "-0.053326722", "-0.045739718", "0.14683926", "0.054558698", "0.06952097", "0.15210836", "0.033567928", "-0.11679376", "0.07133978", "-0.020251429", "-0.003249603", "-0.054900467", "0.21527164", "0.1515648", "0.008974128", "-0.0155454315", "0.061403584", "0.03149857", "-0.1688041", "0.07362162", "0.011740017", "0.11125502", "0.027734123", "-0.13994518", "-0.034546833", "-0.23004313", "0.15552045", "-0.12316444", "0.06340345", "-0.05490772", "0.1644585", "0.19989179", "0.09147943", "0.13209748", "-0.1154129", "-0.12555316", "-0.08813112", "0.048205297", "-0.070378564", "0.07178814", "0.12052039", "0.076850295", "-0.13323495", "-0.009958275", "-0.058235988", "-0.16343464", "-0.052554037", "-0.13006914", "0.00764342", "-0.021321733", "-0.060741", "0.07463417", "-0.10977624", "-0.041797936", "-0.027889177", "-0.07719355", "-0.06637217", "-0.06599658", "0.10912697", "0.07715269", "-0.054976985", "-0.0009596001", "-0.03218152", "0.029884541", "0.094974905", "-0.05400172", "0.030031668", "0.100679286", "0.0015537443", "0.1549025", "0.20513925", "0.09424106", "-0.18984972", "-0.17457874", "0.027689211", "-0.14370097", "-0.088434935", "0.22595084", "0.10854886", "-0.0018273577", "-0.12675641", "-0.07364941", "0.16050774", "-0.1437424", "-0.17190456", "0.07182418", "0.10482423", "0.14091681", "-0.0001130957", "0.12473591", "0.052622814", "-0.15689094", "-0.03658219", "0.14558247", "0.066626355", "0.014951632", "-0.12751189", "0.012321484", "0.14094327", "-0.018256275", "0.19977985", "0.15248948", "0.11910376", "0.002985733", "-0.12236334", "0.1522239", "-0.11420416", "-0.0076853237", "0.11453043", "-0.039020266", "0.00086686737", "-0.08905683", "0.15545985", "-0.14351167", "0.07883486", "0.009451238", "0.0999224", "-0.06006584", "-0.064469464", "0.14251806", "0.12956758", "-0.11103901", "-0.052694112", "0.04586489", "0.09495246", "0.15421973", "-0.018988064", "0.005555491", "0.054892186", "0.052401833", "0.12008708", "0.044459883", "0.049180236", "0.09228229", "0.14679417", "0.1107643", "-0.22690669", "0.15937714", "-0.14567395", "0.007462195", "-0.0066688694", "-0.12006699", "0.10781126", "0.067365006", "-0.13356633", "-0.08889101", "0.059609663", "-0.07153033", "0.084297545", "0.07295626", "-0.1691851", "0.02548923", "0.052731596", "0.0057455753", "-0.0059351143", "-0.07502213", "-0.28907606", "-0.05789184", "-0.10290564", "-0.05874302", "-0.13393173", "-0.009242471", "0.091633484", "-0.058963064", "0.13444817", "-0.06059163", "-0.12852775", "-0.17631336", "0.015511276", "0.027950285", "-0.1365263", "0.06253763", "-0.11021441", "0.08033489", "-0.057978276", "0.029639881", "0.126182", "-0.117707916", "0.23866178", "0.15449685", "-0.122533165", "-0.014428967", "-0.09070881", "-0.1343208", "0.10359898", "0.07191239", "-0.15593007", "-0.0058220834", "0.07423066", "-0.10178172", "-0.09162783", "0.05046748", "0.022154244", "-0.07458284", "0.121092886", "0.15546182", "-0.16618372", "-0.13314351", "0.10963903", "-0.15533288", "0.13645786", "-0.08165078", "0.032222968", "-0.0007992899", "0.24270006", "-0.11674403", "-0.007499254", "0.089985825", "-0.12567472", "0.1351131", "-0.04841349", "-0.02228054", "-0.010732008", "-0.1308437", "0.055621915", "-0.15064044", "0.11540601", "0.055949964", "0.13173544", "-0.12866168", "-0.1000729", "-0.062266175", "0.14602661", "-0.003407719", "0.17794813", "0.20522314", "-0.1323102", "0.11969707", "-0.109284386", "-0.11993489", "0.10046133", "0.039877784", "0.13925661", "-0.047850158", "-0.038654536", "-0.027495017", "0.001944663", "-0.048896756", "-0.1646055", "0.125715", "0.17642757", "-0.176199", "-0.049195293", "-0.11142478", "0.1869572", "-0.22523049", "-0.05899329", "-0.12535965", "-0.010416916", "-0.05631438", "0.073690824", "0.037906036", "-0.13187902", "-0.1679779", "0.2240231", "0.1443533", "0.23804238", "-0.074203655", "-0.011752109", "-0.04170234", "-0.13081802", "0.19718409", "0.07864671", "0.062064085", "-0.07592271", "0.054163873", "0.049613375", "-0.05383261", "0.002498743", "-0.08700248", "0.13333735", "0.06566013", "-0.029462649", "0.050912958", "0.02116259", "0.12372797", "-0.11533802", "0.009977988", "0.089482926", "-0.104355596", "0.096631326", "0.0021655045", "-0.15808716", "-0.17462814", "-0.03296425", "-0.06401713", "-0.03188413", "0.03980112", "-0.17535163", "0.046338126", "-0.026252743", "-0.029025536", "0.13487071", "-0.1592186", "0.034809534", "-0.16704296", "0.013153384", "0.07720888", "-0.14853728", "-0.029885905", "-0.055719834", "0.016513525", "0.088286504", "0.023209397", "0.013928636", "-0.02316765", "-0.21553175", "0.057977512", "-0.018005934", "-0.073526114", "-0.015130839", "-0.13623857", "0.043662727", "-0.044292904", "-0.022610748", "-0.13617761", "0.07368831", "-0.04630801", "0.018710567", "-0.002210192", "0.22116765", "0.013214331", "-0.005239053", "-0.1184062", "0.12310875", "-0.10676489", "0.06318976", "0.08753776", "0.020652663", "-0.09884773", "-0.09198856", "-0.08618517", "0.00498535", "0.10734096", "0.16462375", "-0.004736826", "0.052748486", "0.09980509", "-0.07224795", "-0.019205656", "-0.025658598", "0.030479884", "-0.019090077", "-0.1020564", "0.17997149", "-0.0902417", "0.15271771", "-0.16661248", "0.07973091", "-0.013704391", "0.1227702", "-0.012709641", "0.10281732", "-0.06728518", "-0.18668544", "-0.15891615", "-0.022449162", "0.15270998", "-0.18455335", "0.15572898", "0.13726026", "0.120006934", "0.066993915", "-0.025558667", "0.21045244", "-0.13634309", "-0.04964764", "-0.12276333", "-0.11914379", "-0.09273622", "0.03908833", "0.096110746", "-0.012947357", "-0.043547153", "0.039250128", "-0.111893915", "0.007577883", "-0.13632467", "0.117158055", "-0.12056282", "0.032807328", "0.09114045", "0.12630804", "-0.12695184", "-0.111059755", "0.08328681", "0.05427841", "-0.06702813", "-0.027817212", "0.009073667", "0.16791181", "0.021589492", "-0.07341063", "-0.053965703", "-0.10202127", "0.17645335", "0.008758903", "0.04431287", "0.14360085", "0.036873847", "-0.09653033", "0.12361936", "-0.031747825", "-0.16067438", "0.046485227", "-0.10615551", "-0.028184574", "0.06329338", "0.11641677", "0.0074540176", "0.031485587", "-0.16656332", "0.025052175", "0.07665904", "-0.005966697", "0.08424741", "0.00499707", "-0.13264471", "-0.0832226", "-0.019027231", "-0.20475759", "0.1275078", "0.12141672", "-0.027109014", "0.042364273", "0.11109166", "0.049663085", "0.081764676", "-0.033567075", "-0.14584279", "-0.103037976", "0.074053206", "0.04615324", "-0.030429464", "0.19332726", "-0.01922152", "0.16754933", "-0.14234579", "-0.22638518", "0.15227033", "0.09020545", "0.052344896", "0.04556822", "0.09406966", "-0.12152975", "0.20272024", "-0.25276905", "-0.042409692", "-0.013931462", "0.16052209", "0.07168097", "-0.17874397", "-0.115350574", "0.042425357", "0.016599508", "0.018009296", "0.042083263", "0.13783509", "-0.080028825", "-0.10489737", "0.11885593", "-0.112784944", "0.0312855", "-0.06679328", "-0.06704073", "0.13386571", "0.15978941", "-0.15600313", "0.120760396", "-0.0003825529", "-0.1969972", "-0.10812669", "0.09742751", "0.021649161", "0.04443131", "-0.07128006", "0.14949042", "-0.15795024", "-0.09789787", "0.0036758122", "0.088903226", "0.06262343", "0.1613146", "-0.12985907", "0.03596128", "0.10137104", "-0.072699435", "-0.0018045858", "0.10948043", "0.00476484", "0.15780918", "0.0090878485", "0.09770103", "0.015537561", "-0.008152483", "-0.12615824", "0.0377676", "-0.0771764", "0.015267825", "-0.13260545", "-0.16830084", "-0.14978358", "-0.004665305", "0.052348547", "0.042154472", "0.13770485", "0.09816411", "0.031311367", "-0.03439234", "-0.062591344", "-0.08062622", "-0.18098453", "-0.039895047", "-0.016839687", "0.13071512", "0.12605421", "-0.17348187", "-0.09120708", "0.015941393", "-0.11446965", "0.08879438", "-0.090615146", "0.06755613", "0.06251472", "0.056162417", "-0.03066524", "0.09254676", "-0.091302685", "0.095255986", "-0.0069101304", "-0.17892276", "-0.062225457", "-0.019548433", "-0.010139029", "0.04773273", "0.01121518", "-0.06390658", "0.04321975", "0.005113064", "0.04893131", "0.12912826", "-0.024737278", "0.064695925", "0.01637798", "0.07690196", "-0.06806523", "0.006677907", "0.015612281", "0.083771914", "-0.085433856", "-0.043450423", "-0.05198391", "0.09680695", "0.042350564", "-0.03472084", "-0.10679934", "0.0076922476", "0.07977359", "-0.06263281", "0.16626972", "-0.01594116", "0.008431601", "0.0777885", "-0.1466287", "-0.14254825", "-0.049677696", "0.0885714", "-0.057276543", "-0.073644675", "0.061492022", "0.13664578", "0.02409426", "0.15001914", "0.092469074", "0.15743674", "0.09935189", "0.1584908", "-0.069459386", "0.019052943", "0.07868283", "0.18763055", "0.017294541", "0.04238605", "-0.049143054", "0.022160172", "-0.1551436", "-0.104063064", "-0.06323655", "0.018543921", "0.05657599", "-0.10118915", "-0.011114623", "0.2106147", "0.010784445", "-0.11612649", "-0.08960845", "-0.2030548", "0.17311828", "-0.029827561", "-0.019515483", "0.10554501", "-0.06633139", "0.01342964", "0.01811595", "-0.019279664", "-0.110305905", "0.01011824", "0.19243613", "-0.13067307", "0.06456127", "-0.021789655", "-0.024388995", "0.17224075", "0.0177125", "-0.029921496", "-0.10938992", "-0.03155679", "-0.05982275", "0.060857758", "-0.084332146", "-0.015969796", "0.07558291", "-0.110841244", "-0.24104601", "-0.026273722", "-0.030115975", "-0.1870255", "0.15727545", "0.019916406", "-0.022773087", "0.014065606", "-0.097018555", "0.11093116", "0.07540965", "-0.13214342", "-0.045679558", "0.14124474", "0.12875292", "0.05309195", "0.21784899", "0.018570937", "-0.05358943", "-0.045156147", "0.036506183", "-0.08108445", "0.05517091", "-0.05946151", "-0.01312189", "0.15086302", "0.072109826", "-0.016535318", "-0.1418916", "0.20672736", "-0.12300313", "0.049914893", "0.13913344", "-0.18311201", "0.15211222", "-0.061466433", "-0.12934005", "0.21242192", "-0.08417058", "0.04434558", "-0.07166294", "0.013061949", "0.04512032", "0.010102825", "0.07839578", "0.11409471", "-0.077631116", "0.051953122", "0.090529054", "-0.057622526", "0.09065701", "-0.1681291", "0.048767652", "-0.14921126", "0.01030019", "-0.13656232", "0.05993369", "0.06460584", "-0.12348763", "0.10318025", "0.10958603", "-0.044933915", "0.007205005", "-0.14236863", "-0.07106027", "0.037410356", "0.027260257", "-0.03444348", "0.060639597", "-0.017669808", "-0.002399836", "-0.09592301", "-0.079740226", "-0.04151155", "0.047234558", "-0.14050797", "0.1751071", "0.08279004", "-0.10859466", "-0.010912025", "-0.05574431", "0.06597278", "0.042689938", "-0.00027125955", "-0.072596505", "0.10359644", "-0.12893449", "-0.14155996", "0.10735735", "-0.13645612", "-0.0032663534", "0.16171573", "-0.0050755045", "-0.038420867", "-0.056547023", "-0.006377762", "-0.19006768", "-0.14855814", "0.053856734", "0.05134264", "-0.04106784", "-0.02006832", "0.09849459", "-0.07709382", "-0.10410049", "-0.03159949", "0.045929395", "0.06432132", "-0.17731363", "-0.09590216", "0.107607454", "-0.009055958", "0.029520275", "-0.20201358", "0.013018145", "-0.21525423", "0.041558634", "-0.061419975", "-0.11717708", "-0.09292813", "-0.1417182", "-0.036301136", "0.07293465", "-0.2399809", "0.05018329", "0.15107407", "0.096223675", "-0.045234814", "0.011042416", "0.2238556", "-0.071225286", "-0.06086336", "-0.11178443", "-0.16504283", "-0.047415044", "0.09730628", "-0.18761472", "0.030889388", "0.14530197", "0.00586819", "0.064713664", "-0.06985329", "0.19013576", "0.089769326", "-0.20486167", "-0.05848562", "0.12081822", "0.1328315", "-0.11674768", "-0.11397246", "-0.063195646", "0.102648586", "-0.05795936", "-0.022399526", "0.061826352", "-0.23562303", "0.17939539", "0.008342894", "0.018532664", "0.0128582725", "0.23930198", "0.17801945", "-0.07627437", "-0.074049585", "0.034417287", "-0.20596346", "-0.1449069", "0.021038296", "-0.023806892", "0.010850672", "0.088449955", "-0.12676573", "0.11043701", "-0.02494837", "-0.054077625", "-0.05609549", "-0.07540232", "-0.04732058", "0.016851185", "0.07384279", "-0.13676436", "0.11479496", "-0.012368606", "0.029758573", "-0.09256152", "-0.03856282", "-0.01687733", "0.015371209", "0.086686924", "0.028650105", "-0.0867778", "0.09908893", "0.13855198", "-0.01593645", "-0.037906058", "7.41005e-05", "-0.13577992", "0.071489684", "0.20471485", "0.05845313", "0.105314046", "0.037568122", "0.08831926", "-0.08442947", "-0.083695546", "-0.039180808", "0.13211972", "-0.12564655", "-0.034838352", "0.084259376", "-0.1677192", "-0.19092031", "0.08887948", "0.10697332", "0.11663917", "-0.070438735", "-0.028013546", "0.1944567", "-0.06126206", "0.063153595", "0.018503504", "0.2809665", "0.0063334885", "-0.11926213", "0.06540567", "-0.036223624", "-0.0031808133", "0.060506143", "0.16774502", "-0.15143605", "-0.07315693", "0.19516392", "0.09448396", "-0.12234686", "0.057569213", "0.09716407", "0.069702744", "-0.02908748", "0.14474815", "0.09913045", "0.003749084", "0.059615377", "0.085862175", "-0.13325077", "0.040622182", "0.091308676", "-0.09576146", "0.19631498", "0.059572857", "-0.11415671", "-0.026871718", "-0.10711067", "0.009913242", "0.1031454", "-0.064534366", "-0.036485422", "0.11061924", "-0.0152679365", "0.079870634", "-0.13011949", "-0.1933866", "0.07422549", "-0.00634446", "-0.038912322", "0.07496676", "-0.14693142", "-0.16778308", "0.0045830947", "0.02557456", "-0.07927327", "-0.1066843", "-0.07524657", "-0.011681371", "-0.07311474", "-0.100349754", "0.02710469", "0.09321721", "-0.21977848", "-0.13782597", "0.121529594", "-0.08845529", "-0.08549936", "0.07491565", "0.13874266", "0.008594867", "0.15804468", "-0.06800945", "0.058044944", "0.040686503", "0.15832482", "-0.020261064", "-0.024455192", "-0.030138105", "0.10148658", "-0.13537861", "-0.012552432", "0.071115285", "-0.03952259", "0.024743546", "0.09988076", "0.13913202", "-0.055569224", "0.13201648", "0.16217804", "-0.075846024", "-0.07856862", "-0.07024441", "-0.08247383", "0.034837935", "-0.060248338", "0.23707706", "-0.0073208185", "0.05591821", "-0.023932844", "-0.040837448", "0.1717934", "0.043232124", "0.1002702", "-0.074670486", "0.1034993", "-0.017247569", "0.2613017", "0.07179151", "0.069901444", "-0.12402813", "-0.121878296", "0.13829255", "-0.02349845", "-0.07226621", "0.009931432", "-0.013982787", "-0.03059829", "0.10093199", "0.1741117", "0.09120346", "-0.06879158", "0.08141483", "0.14541245", "-0.044400163", "0.16573994", "0.14724673", "0.222613", "0.12191856", "0.13653038", "-0.08915881", "-0.05222021", "0.06908547", "0.27000967", "-0.16340047", "0.11451336", "-0.032337498", "0.10009292", "0.15564443", "-0.17246947", "-0.058181856", "-0.0721531", "0.08773521", "0.1167823", "-0.07976281", "-0.04420836", "-0.14421076", "0.06901972", "-0.125531", "0.16662031", "-0.21351072", "0.05847942", "-0.008116131", "0.056952763", "0.064182125", "0.13312782", "0.027221235", "-0.028136803", "-0.09269623", "-0.08669246", "-0.037940778", "0.11632184", "-0.08089879", "0.0800705", "0.070058204", "-0.06076076", "0.024009034", "0.12928142", "0.02981238", "0.086820245", "0.060793474", "0.20872849", "0.08683487", "-0.010690963", "0.0065979185", "0.09395136", "0.061423294", "-0.07395016", "0.046332736", "0.011121125", "-0.16985062", "0.06086112", "-0.035167895", "-0.048396055", "0.20910038", "-0.07643624", "-0.059765197", "0.03943137", "-0.12104722", "-0.15452614", "-0.016694527", "-0.038960185", "-0.09484446", "-0.15546264", "-0.11596214", "0.01494936", "0.05037514", "0.10285945", "0.2563979", "0.22375302", "0.1618002", "0.019902606", "-0.024502605", "0.091958", "-0.11914503", "0.023688084", "-0.0689285", "0.22907336", "0.15467255", "0.12095226", "0.087522596", "-0.027218515", "0.07053565", "-0.078132115", "-0.17010407", "-0.21015443", "-0.120527126", "0.1459982", "0.17215559", "-0.0928637", "-0.028848436", "-0.026471497", "-0.011832852", "0.033566922", "0.05810865", "-0.023707433", "0.03185806", "0.24149404", "0.02785911", "-0.040010415", "-0.107122466", "0.1996899", "-0.07932207", "-0.03493871", "0.030652445", "0.056888532", "-0.1336967", "-0.0015336836", "-0.14817114", "0.075671345", "-0.020229196", "0.09236687", "0.101101406", "0.12788503", "0.0832194", "-0.09957379", "0.010890975", "-0.011937565", "-0.15835008", "0.13261063", "-0.047050282", "0.042121425", "0.10558831", "0.15270697", "0.067125246", "0.062405504", "-0.1022996", "-0.100384384", "-0.009239007", "-0.15933931", "0.1275576", "-0.20093705", "-0.057131972", "-0.19199134", "-0.13075204", "0.0039307633", "-0.11784641", "0.008364895", "0.030672021", "-0.094780795", "0.07673373", "-0.004478693", "0.048218995", "-0.081330515", "0.16255935", "-0.13869779", "0.17307828", "0.05240454", "0.12027096", "-0.12260688", "0.12539515", "-0.13412635", "-0.08587367", "-0.06491429", "-0.056381095", "-0.10993422", "0.0035972025", "0.015213481", "-0.047695838", "-0.021493785", "0.16102482", "0.0336569", "0.06392325", "-0.06384705", "-0.08930986", "-0.010856218", "-0.05117347", "-0.008964254", "-0.10448855", "0.0998422", "0.13739811", "-0.14149226", "-0.057388514", "0.054043468", "0.15952116", "-0.0067880764", "-0.010065349", "0.16217852", "-0.15650402", "-0.12329004", "-0.06945983", "-0.1000329", "0.006109014", "0.055561334", "-0.13490757", "0.01911094", "0.1498631", "-0.038643166", "-0.012712995", "-0.027163498", "0.058723483", "0.09865003", "0.026272316", "0.12938778", "-0.13446145", "-0.04877879", "-0.11423527", "0.11947759", "-0.10365816", "0.02187744", "-0.04951436", "0.14745007", "0.017149681", "-0.06286838", "0.053710654", "0.030508453", "0.102246456", "0.14152262", "0.16723387", "0.18994083", "0.11002916", "-0.0013945336", "-0.09477383", "-0.10997266", "0.0444305", "-0.06411477", "-0.1084371", "-0.0071082185", "0.06767107", "-0.13166562", "-0.0846878", "-0.12061546", "-0.06427412", "-0.07716935", "-0.010501358", "-0.1439732", "0.09630403", "0.02576177", "0.109779105", "-0.060034752", "0.13938533", "-0.020210698", "0.17783168", "-0.17204869", "-0.15816957", "0.10081218", "-0.05303524", "-0.119881704", "-0.108746365", "0.16350392", "0.13543871", "-0.010557512", "0.09791926", "0.042772844", "0.0035150696", "-0.059592474", "-0.024772324", "0.18587677", "0.029018832", "-0.10685775", "0.020213766", "-0.12354228", "-0.04485012", "0.10636008", "0.11583291", "0.0003575377", "0.0923627", "0.10243038", "-0.07109246", "0.037747007", "0.091760725", "0.093547374", "0.023301698", "0.019235572", "-0.07350002", "0.005130676", "-0.08809922", "-0.00328923", "0.005378405", "0.17475554", "0.046888255", "0.12646155", "0.113798566", "0.16255726", "0.032775436", "0.12681687", "0.06788664", "-0.04625637", "0.041897085", "0.11439966", "0.17572317", "-0.024541574", "-0.08195859", "-0.13704528", "0.009779332", "-0.06839421", "0.026447188", "-0.08608407", "0.12830457", "0.040700532", "0.13541271", "-0.06128032", "-0.06401", "-0.12487268", "0.008962014", "0.114044674", "-0.08108606", "-0.014876705", "0.039998915", "-0.060042925", "0.07505201", "0.09502266", "-0.12472017", "0.014208348", "0.019342786", "0.105222434", "0.14966944", "0.16274215", "-0.1878947", "-0.009823458", "-0.03902819", "0.012917605", "0.029020073", "0.06262166", "0.0020745334", "0.032292895", "0.06566361", "0.08924924", "0.12857947", "-0.18521555", "-0.24369188", "0.021514082", "0.04924959", "0.15658239", "0.053701375", "0.097241856", "-0.11279833", "-0.11512052", "0.06925999", "-0.15581374", "0.0069940328", "-0.035556387", "-0.011515665", "0.060110167", "-0.20482561", "-0.098352306", "0.09348041", "-0.07168934", "0.047543395", "0.05614988", "0.14720324", "-0.020130977", "0.12944375", "-0.07594195", "-0.0028052477", "0.014339906", "0.071804084", "0.105332084", "0.101900294", "-0.089463614", "-0.08989545", "0.087108456", "-0.21053518", "0.13551144", "0.07145195", "0.104300775", "-0.027963884", "0.18357417", "0.06497828", "-0.022481449", "0.17450696", "0.050281152", "-0.056353293", "-0.08241033", "0.048830885", "-0.05971797", "0.09472451", "0.1239913", "0.10342741", "0.16989373", "0.09646656", "-0.16015007", "-0.10225962", "-0.08685899", "0.06946023", "-0.034619343", "0.061943036", "0.020412704", "-0.11645393", "-0.1260536", "0.014298332", "0.0011233141", "-0.11011027", "0.07737715", "-0.0964754", "0.15445383", "-0.0111184055", "0.176002", "0.0631776", "0.066345066", "-0.06753723", "-0.001483488", "-0.07657817", "-0.10654934", "-0.078190945", "0.08593351", "-0.12471175", "0.079069756", "-0.026962847", "0.17083523", "-0.10407919", "0.20684886", "0.06935553", "-0.039250825", "-0.09646602", "0.12086479", "-0.052816667", "0.1486125", "0.15447783", "0.020174442", "0.14094338", "-0.11008143", "-0.10262657", "0.040377874", "0.023519738", "-0.05574533", "-0.17859775", "-0.017298399", "0.011288833", "-0.06617021", "0.017723016", "-0.046537604", "0.060800247", "0.10303522", "0.038124", "0.19990872", "0.10260037", "0.09332847", "-0.0050065857", "-0.16861798", "0.031449527", "0.12104625", "-0.10476375", "-0.048366286", "0.085103676", "-0.1606088", "0.111565135", "0.004558666", "0.079186045", "-0.060609397", "-0.07527448", "0.1034443", "0.14868644", "-0.2442588", "0.033072285", "-0.08762548", "0.12444488", "0.14690375", "-0.03160296", "-0.033986326", "0.040579904", "0.01952828", "0.03903417", "-0.018547809", "0.061855525", "-0.12818727", "0.005579433", "0.11965092", "-0.023033561", "0.07073695", "0.010450626", "0.07180879", "0.035695516", "0.19699447", "0.19315873", "0.1411544", "0.09129004", "0.022137238", "0.1995434", "-0.13737589", "0.04860002", "-0.08617273", "0.102174476", "-0.043682713", "0.20134145", "-0.021680592", "0.16586936", "0.08910792", "-0.11701211", "0.08232733", "-0.025461275", "-0.061809488", "0.09600008", "-0.13572489", "0.02986403", "-0.0100816665", "-0.06506501", "0.16041636", "0.020049104", "0.113515966", "-0.11115692", "0.117603466", "0.10995469", "0.06541502", "-0.08980994", "0.049747407", "0.04154363", "-0.15125977", "-0.14132999", "0.028905949", "-0.020769391", "-0.041311316", "0.06874047", "0.1849113", "0.054743264", "-0.07783757", "-0.0429331", "-0.016323026", "0.12280267", "-0.009960608", "-0.06713196", "0.13932465", "0.069811195", "0.057182666", "-0.116308995", "0.03578942", "-0.039158747", "-0.007423126", "0.09017017", "0.07888948", "-0.15679589", "-0.088117905", "-0.21268114", "0.10550218", "0.12032519", "-0.06666797", "-0.115548775", "-0.041860163", "0.096877046", "-0.07482463", "0.023694756", "0.09760034", "0.099496804", "0.011537554", "-0.038465716", "0.08277656", "0.14081725", "0.08396815", "0.123723485", "0.022782773", "-0.008182983", "0.107005045", "-0.08407744", "-0.011458211", "-0.101592", "0.13395013", "-0.058556713", "-0.021194197", "-0.02880419", "-0.12660219", "-0.14475235", "0.113999516", "-0.15417501", "0.08215261", "0.021871962", "0.046522435", "0.053791445", "-0.22185625", "-0.025375534", "-0.06983728", "-0.12954117", "-0.03029472", "0.16436063", "-0.093494646", "0.19069974", "-0.06883381", "-0.069468975", "-0.034242075", "0.011403566", "0.027191492", "0.038920064", "-0.05585943", "-0.021061093", "-0.10608854", "-0.01221481", "0.04648992", "-0.12840946", "-0.08995369", "0.08015063", "0.119644836", "0.07028927", "0.05921198", "-0.039210923", "0.06460969", "0.20109367", "-0.042221446", "-0.15471847", "0.0019259497", "0.17566913", "-0.07929792", "0.019115176", "0.094654106", "-0.09433106", "0.07023174", "0.02065707", "-0.012647187", "-0.11861792", "0.1401522", "-0.044257652", "-0.13835022", "-0.07251694", "-0.13965875", "-0.022141736", "-0.17705317", "0.10733714", "0.11702972", "-0.026956243", "-0.12650767", "0.112187624", "0.02115005", "-0.17416242", "-0.030836713", "0.034172658", "-0.12388288", "0.08173838", "0.1241246", "0.1710145", "-0.14512782", "-0.14446127", "-0.12958053", "-0.12443131", "-0.06951454", "-0.10881932", "-0.19035047", "0.16054076", "0.07611379", "-0.019220814", "0.046824243", "-0.1068094", "0.06625461", "-0.09599446", "-0.0109368805", "0.0029970757", "-0.098419234", "-0.103636384", "-0.01508849", "0.14513922", "0.015367768", "-0.08182442", "0.03401708", "-0.068674415", "0.051282804", "0.07891498", "-0.017643308", "0.012010509", "0.0032387888", "0.044830527", "0.018551638", "0.13611433", "0.051638294", "-0.014203916", "-0.17593016", "0.0803389", "0.14695957", "0.17379573", "0.1682407", "0.0053824666", "-0.031234749", "0.02406461", "-0.016448192", "0.20551266", "0.15196046", "-0.14820117", "0.057095535", "-0.0630308", "-0.018788518", "0.022665607", "0.08022006", "0.050559692", "0.12812816", "0.004798906", "0.19509132", "0.036551863", "-0.0798641", "-0.045790434", "0.0813434", "-0.09020522", "-0.016023599", "0.019685889", "-0.032983135", "0.07550048", "-0.058348443", "0.1709407", "0.12554124", "-0.026747955", "-0.0023581346", "-0.054146666", "0.15643029", "0.0681472", "-0.027751902", "-0.09723295", "-0.07817465", "-0.10935525", "0.014812128", "0.15711229", "-0.104473434", "0.10445609", "0.049132917", "-0.14863692", "0.049150042", "0.029223338", "-0.10361264", "0.19850732", "-0.00997271", "-0.053691577", "0.06473702", "0.074699424", "0.21614552", "0.09194174", "0.015302009", "-0.059845056", "0.093263574", "-0.011333547", "0.08652211", "0.01979424", "0.009534467", "0.09959388", "-0.056853343", "0.002371188", "-0.06844438", "0.0020379361", "-0.072150744", "0.09131802", "0.04100518", "0.12288501", "0.1700611", "0.07818657", "0.059989315", "-0.08323745", "0.1907715", "-0.09113252", "-0.2603145", "-0.08553459", "0.048486676", "-0.107942045", "0.03714139", "0.01834626", "-0.012620748", "-0.09129562", "-0.09104617", "-0.088168025", "-0.11194356", "-0.1216622", "-0.11875436", "-0.09757514", "-0.053736467", "-0.20564096", "-0.0177263", "0.0015703567", "-0.1876569", "0.10048673", "-0.064167775", "0.18621328", "0.09396116", "-0.06284636", "-0.039910596", "-0.1503225", "-0.018454554", "-0.20743266", "0.0012043271", "-0.014737948", "0.08876317", "0.10160274", "-0.03533698", "-0.104488455", "0.15850429", "0.15822057", "-0.027829373", "0.005593171", "0.0788566", "-0.100397356", "0.11530204", "-0.015327605", "-0.166644", "-0.0050361212", "0.04367559", "-0.046630412", "0.25414202", "-0.04328212", "-0.030045155", "0.19139688", "0.017683078", "0.074697495", "0.07101254", "0.120214194", "-0.11856874", "-0.08820167", "0.041139748", "-0.1654796", "0.1739227", "0.040305175", "0.07188724", "-0.15044443", "-0.13712452", "-0.011244454", "0.042185184", "-0.093031086", "0.10339156", "-0.0063909814", "-0.13492766", "-0.00082686514", "-0.09138454", "-0.022272574", "0.05091026", "-0.13536708", "-0.044060275", "-0.13186413", "0.121044174", "0.0115181105", "-0.15790804", "0.07808157", "0.08463442", "0.06144788", "0.12022576", "0.038154628", "-0.012601951", "-0.026403824", "0.011793281", "0.10598115", "-0.11249151", "-0.03431021", "-0.03459246", "0.043359753", "-0.111697845", "0.071594946", "-0.040749684", "0.1524854", "0.11584679", "0.03735966", "-0.04093841", "-0.0625856", "0.031398743", "-0.022908159", "-0.02511085", "0.055823818", "-0.0010992826", "0.040271595", "0.02770209", "-0.15012917", "0.015328805", "-0.11547639", "0.029542355", "0.10176971", "-0.071900085", "-0.004144435", "-0.210942", "-0.091625676", "0.10633665", "0.06384519", "0.09877378", "0.18571973", "0.06628968", "0.001251453", "-0.03082102", "-0.095976494", "0.087267324", "-0.06543333", "-0.07648421", "-0.032726433", "0.0016535006", "-0.052213345", "-0.1271053", "-0.14759307", "-0.23828243", "-0.13171178", "-0.013299228", "0.09893401", "0.029504016", "0.033408035", "-0.23474072", "0.06259867", "0.03232225", "-0.08247678", "-0.19157898", "-0.11247579", "0.031125251", "-0.0995681", "-0.048746318", "0.18348275", "0.12820816", "0.13369483", "-0.1030704", "-0.109780915", "0.20099281", "0.0836252", "0.17050876", "0.034093022", "0.043733127", "-0.019567093", "-0.042257443", "0.054009244", "0.22384833", "-0.13978112", "-0.004010243", "-0.074151486", "0.026969895", "-0.041258138", "0.09626285", "0.082798086", "0.0721467", "0.113690466", "0.1643442", "0.08933629", "0.010354716", "0.1487696", "0.14335851", "-0.05403376", "-0.120061", "0.058413975", "-0.015863324", "0.051486388", "0.03550418", "-0.027708335", "0.11239712", "-0.13889715", "0.012219614", "0.13238338", "0.085912816", "0.093702935", "0.02568305", "-0.15855584", "-0.18068118", "0.06638902", "-0.06570626", "-0.053712137", "-0.0028068898", "-0.07046729", "-0.18267485", "-0.073532455", "-0.038783878", "-0.01082476", "0.17750894", "-0.12112146", "-0.0784522", "-0.08902818", "0.13040833", "-0.05720046", "0.043663573", "0.06888466", "-0.126854", "-0.05874058", "-0.040861793", "0.080964044", "0.099506915", "-0.08066521", "-0.08687152", "-0.0038282648", "-0.039031368", "-0.061140012", "0.13225329", "-0.029045437", "0.051327046", "0.091912016", "0.06274481", "0.22236001", "-0.015443418", "0.06310755", "-0.20121393", "-0.11345881", "0.03772367", "0.035722043", "-0.113739066", "0.06588021", "-0.06935269", "0.18894286", "0.08445207", "-0.13009417", "0.1267018", "0.04622561", "0.0034313917", "0.087612115", "0.043760236", "-0.09830945", "0.11179478", "-0.18268035", "0.13382438", "0.099581905", "-0.06419168", "0.05904429", "0.103606254", "-0.112783454", "0.087810405", "0.17336361", "0.07944053", "-0.04006544", "0.07095515", "0.1236801", "-0.057222374", "0.048232142", "-0.06032321", "0.06506553", "-0.03257283", "0.07479794", "-0.02596273", "0.04882472", "0.20811398", "-0.12378133", "0.037693962", "-0.028939385", "0.06969566", "-0.01239191", "0.103437446", "-0.12890418", "-0.042390216", "0.045587074", "0.032292016", "-0.0036458452", "-0.036015462", "0.086037986", "0.119269714", "-0.03432161", "-0.14402841", "-0.14640513", "-0.0817105", "-0.038622607", "-0.08986098", "-0.15710534", "-0.14391582", "0.02336176", "-0.010419303", "-0.06891618", "0.05699742", "-0.08747728", "-0.082528785", "0.043251995", "0.012542395", "-0.16558273", "0.047629204", "-0.063218065", "-0.218297", "-0.16343439", "-0.13936974", "-0.061516885", "0.08178353", "-0.06683752", "0.13902341", "0.010402982", "0.023983343", "-0.018199522", "0.12993027", "0.07428303", "-0.15503576", "0.13551714", "-0.17168215", "0.13211739", "-0.00444348", "-0.113545924", "-0.043071903", "-0.14591417", "-0.16149075", "-0.058300342", "0.15109856", "-0.09725299", "0.024098238", "-0.022771493", "-0.09398381", "0.017560946", "0.119257025", "0.18097542", "0.10251617", "-0.14049836", "-0.19117172", "0.13319136", "0.119792834", "0.07482958", "0.038689014", "-0.13451622", "-0.1605599", "0.02276583", "0.047919266", "-0.1490968", "-0.012294696", "-0.030673232", "-0.17063716", "-0.026460402", "0.060338926", "-0.053426187", "-0.11474165", "0.07103593", "0.07357163", "-0.19926058", "-0.20798744", "0.22234222", "-0.06879857", "-0.0722756", "0.1676322", "0.052731294", "-0.016696718", "-0.0798972", "0.10599294", "0.14536433", "0.0041977307", "-0.2822786", "-0.055212427", "0.17446704", "-0.11108854", "0.10399032", "-0.23661461", "0.15899678", "0.015279833", "-0.17769259", "-0.030198352", "0.10576195", "0.04507221", "0.015391275", "0.12710895", "0.11658383", "0.066114806", "-0.0033939856", "-0.15855321", "-0.13832371", "0.065982744", "-0.11430309", "-0.0522083", "0.01593489", "0.1967301", "-0.07432972", "-0.0052367426", "-0.14535242", "-0.17093636", "0.26229542", "-0.029358849", "0.03414823", "0.24338803", "-0.042142924", "0.009254734", "0.09212411", "-0.06281351", "0.10570101", "-0.024529193", "0.10396882", "-0.06630909", "0.016171202", "-0.0933779", "0.02894049", "0.011552242", "0.18039487", "0.018141339", "0.010842183", "0.037591033", "0.008429511", "-0.016344892", "-0.109448165", "0.1803717", "0.1092129", "-0.0698498", "-0.035111476", "0.020022796", "0.17133988", "0.109079465", "0.05129638", "-0.20274891", "0.009458032", "0.052995436", "0.15885872", "0.110401765", "0.10214278", "0.0006492425", "0.021475364", "0.01702432", "-0.054848053", "-0.13265502", "-0.10024175", "0.16866529", "-0.023488697", "0.06737272", "0.12674928", "-0.121301726", "-0.13002998", "-0.10215904", "0.07632455", "-0.08312446", "-0.12259912", "0.09995789", "-0.09146637", "-0.039760984", "0.052393153", "-0.025625233", "0.130671", "-0.080313765", "0.143027", "-0.004840483", "-0.026810065", "0.030493826", "0.07052277", "0.18175878", "-0.052886114", "0.1039358", "0.023067487", "-0.10663192", "-0.004351034", "-0.057400603", "-0.1513078", "0.026762", "0.0688231", "0.12618808", "0.16904297", "-0.14959718", "-0.09801588", "-0.021844562", "-0.122785516", "0.0801232", "0.088431545", "0.10102923", "-0.112763576", "0.059074104", "-0.096929364", "-0.026732268", "0.056052003", "0.059796095", "-0.13488464", "-0.123663165", "-0.22111905", "-0.010854318", "-0.020573093", "-0.15457602", "-0.1521819", "-0.059373688", "-0.019004844", "0.10119292", "0.16872881", "0.12032296", "-0.041044354", "0.023299655", "0.028425816", "-0.079244494", "0.08796335", "-0.15299965", "0.17052452", "-0.071175665", "-0.12819079", "-0.11056175", "0.015669072", "0.071052395", "-0.10967526", "0.093516156", "0.0840779", "-0.04557648", "-0.21724208", "0.04544893", "-0.12159691", "0.13849638", "-0.20108171", "-0.02886244", "-0.08398771", "0.11510926", "-0.2229789", "-0.26507798", "-0.057684593", "-0.0048476486", "0.027433816", "0.07625048", "0.07617886", "0.017288048", "0.062783465", "-0.06418972", "0.055986036", "-0.07851022", "-0.055894796", "0.07218326", "-0.0706826", "-0.11677254", "-0.17886616", "0.08337881", "0.11808961", "-0.0236655", "0.012781704", "-0.008336899", "0.07929272", "-0.08285904", "0.018793948", "-0.043628838", "-0.018696984", "-0.04384174", "0.025677012", "0.09640303", "-0.1405874", "0.14206658", "0.056727935", "0.13755953", "-0.21926038", "0.019154884", "0.09227645", "0.12845334", "0.2735854", "0.093036585", "-0.014580152", "-0.088337846", "-0.0978674", "0.053161915", "-0.13458174", "-0.0120421825", "0.16988772", "0.029723749", "0.14587787", "-0.10106843", "-0.07389746", "-0.14555632", "0.08153655", "-0.09705652", "-0.008247951", "0.14248928", "-0.045724988", "0.12312912", "0.20778228", "-0.006373673", "0.13459547", "0.11377098", "-0.005390347", "0.08730958", "0.011294127", "-0.037551638", "-0.061862502", "-0.03981105", "0.09252423", "0.12655221", "0.0040098773", "-0.18245584", "-0.038873464", "-0.0041804393", "0.019979594", "-0.015969913", "0.17115356", "0.06539859", "0.07605705", "0.037180275", "0.04318507", "-0.04192131", "0.17328097", "0.06529297", "-0.051583212", "-0.13335612", "-0.078372486", "-0.02967421", "0.12165176", "0.07145369", "0.09101214", "0.023015743", "-0.11510789", "-0.01255115", "0.03981345", "0.021291036", "-0.12230297", "-0.15697193", "0.1498986", "0.1353507", "-0.015904358", "-0.112833045", "-0.00440994", "-0.11947031", "0.08130102", "-0.104486294", "0.030239929", "0.23986413", "0.012815416", "0.044628926", "0.12360691", "0.23125876", "-0.07037403", "-0.06192924", "-0.06803756", "-0.025055028", "0.019452002", "-0.099403344", "0.07336465", "-0.010963747", "-0.05026446", "0.04577923", "0.114376694", "-0.16853185", "-0.08765334", "-0.15870027", "-0.040105682", "-0.1244639", "-0.00019461509", "-0.019737098", "0.05371521", "0.001915549", "-0.16254069", "0.11076209", "-0.08795597", "0.012166717", "0.1497712", "-0.18443011", "-0.055278882", "0.00485394", "-0.14840117", "-0.019145506", "0.11638562", "0.114786305", "-0.038659558", "0.0691876", "0.1337676", "-0.10246694", "0.11816332", "0.14973122", "-0.029114801", "-0.037331685", "-0.10689538", "0.04114", "-0.05037427", "-0.004845992", "0.0639796", "0.08319835", "-0.054624338", "-0.051768653", "0.03936101", "-0.0013733861", "0.16142325", "-0.020592937", "-0.18545131", "0.13120282", "0.11119754", "-0.035718255", "-0.004497933", "-0.03280358", "-0.0077821366", "0.007038983", "-0.10850575", "-0.1120263", "-0.10579751", "-0.092209876", "-0.025771566", "0.0048521683", "0.054056488", "0.079152144", "0.0662043", "-0.0867183", "-0.0494368", "0.1404125", "-0.00940103", "-0.055355884", "0.124930374", "-0.08927559", "0.021802198", "-0.027566068", "-0.046373192", "-0.034175906", "0.030511169", "0.11580151", "-0.03169256", "0.034436293", "0.025252791", "-0.12365344", "-0.030876286", "-0.011444017", "-0.01099358", "0.06760817", "-0.016043287", "-0.08463848", "0.046638686", "-0.13671172", "-0.08976966", "0.07201299", "0.030367102", "0.04509424", "0.15548956", "-0.020371195", "0.082071826", "0.13972408", "0.03900629", "0.0685554", "-0.004651753", "-0.082122974", "0.10672866", "-0.09266492", "0.062389314", "0.010545371", "-0.04895174", "0.062184177", "-0.0551537", "0.08277845", "0.06974787", "0.033146877", "0.0852364", "0.048379492", "-0.07050852", "0.12967551", "-0.058876883", "0.08975052", "0.15505128", "-0.04951963", "0.08335248", "-0.111852914", "0.0076382663", "0.076956615", "-0.06307472", "0.22638398", "0.09306377", "-0.046736013", "0.08912012", "-0.12899427", "-0.022444585", "-0.04066286", "-0.013524213", "-0.04939063", "0.107191004", "-0.10906437", "-0.026913028", "0.01947025", "-0.014264814", "0.13286304", "0.07028533", "0.113851346", "0.022996947", "-0.10847101", "0.040747385", "0.11143372", "0.035320457", "0.09421287", "0.21950567", "0.1578964", "0.107821204", "-0.041419066", "-0.04365223", "-0.18796486", "-0.17260723", "-0.00038572808", "-0.20232189", "0.05132161", "0.010159184", "-0.047461506", "0.06970535", "-0.00921061", "-0.00039858592", "-0.0047925324", "-0.2213682", "-0.10180272", "0.014757219", "-0.0078988755", "0.018624883", "-0.03547192", "0.10253099", "-0.076336876", "0.15628473", "-0.09446658", "-0.079419866", "-0.050718214", "-0.011439732", "0.008208354", "0.009044516", "0.11058684", "0.10937133", "-0.1460917", "0.049804635", "-0.10155114", "-0.022186656", "-0.23536107", "0.09966525", "0.16799282", "-0.09312121", "-0.087648444", "-0.0057685897", "0.014599914", "-0.14866444", "-0.0031121566", "0.04907843", "-0.013687425", "0.18031271", "-0.031118536", "-0.08003667", "0.038223643", "-0.07935289", "-0.14389232", "-0.13199274", "0.11066913", "-0.15568557", "-0.053262636", "0.05834875", "-0.07104328", "-0.08887276", "0.046622045", "-0.06744054", "-0.054092888", "-0.21829113", "-0.085665464", "-0.10367348", "-0.0653881", "0.07765733", "-0.098580875", "0.11138112", "-0.003990247", "-0.1316851", "-0.030281676", "-0.082065344", "-0.013076407", "-0.17739718", "0.009811404", "0.12385516", "-0.21339312", "-0.084251575", "0.0039022984", "0.018621668", "-0.011354669", "0.16571507", "-0.08464488", "0.14847878", "-0.18316196", "0.14037505", "-0.07575979", "0.117810555", "-0.06986372", "-0.16719106", "-0.11427541", "0.13674918", "-0.09113993", "0.09730991", "0.13083129", "0.025543641", "-0.10326334", "0.033247713", "-0.0013371239", "0.09723724", "0.042630326", "0.037281178", "0.16167702", "0.18087417", "0.032312173", "0.017694786", "-0.09852181", "0.032856476", "0.05194113", "0.14664377", "0.07710024", "0.05652707", "0.0028017696", "0.032186456", "-0.1299967", "0.04613805", "-0.068863474", "0.07959719", "-0.07767543", "0.08477602", "-0.06492341", "0.13271265", "-0.10014893", "0.07615473", "-0.061498232", "0.014183097", "0.045348916", "0.21007761", "0.02514333", "0.010699687", "-0.15322904", "0.08224067", "0.0107141575", "-0.11793508", "-0.13694765", "0.023842182", "0.024408802", "0.14666937", "-0.02203058", "0.16951102", "0.1482687", "-0.09993748", "-0.094068326", "0.12244765", "0.14407972", "-0.032224342", "0.08476795", "-0.19243865", "-0.008371408", "0.026960704", "-0.09247805", "0.097081125", "-0.086460665", "-0.041100174", "-0.13141629", "-0.083235264", "-0.0049641267", "-0.034171417", "-0.07757892", "-0.04323251", "-0.13297118", "-0.021514626", "0.014036294", "-0.13626705", "0.19979347", "-0.04726539", "0.05396649", "-0.03559718", "-0.03691789", "0.0964142", "-0.09008047", "0.07606728", "-0.032520156", "-0.07543576", "0.080581166", "0.08307778", "0.035134632", "-0.05822477", "0.045761168", "-0.12910329", "-0.1153939", "-0.12219765", "-0.035844527", "0.027614323", "0.06994511", "0.08753224", "-0.03453005", "-0.04922426", "0.06602306", "0.0524538", "0.18798342", "0.050957024", "-0.054012492", "0.011460778", "-0.080193155", "0.07767354", "-0.21406807", "0.16745183", "0.119672865", "0.061690923", "0.10085968", "0.0003945738", "-0.036564376", "-0.011280631", "-0.019646214", "-0.06793313", "0.052470803", "-0.17708977", "0.014135552", "-0.11458177", "-0.100215636", "0.06925101", "-0.0821423", "-0.16915627", "0.15757033", "0.06964331", "-0.071605675", "-0.050626226", "0.032481577", "-0.07289005", "-0.18169335", "0.08724407", "-0.08439674", "-0.0815091", "-0.002341752", "0.05028905", "-0.12748142", "-0.09343956", "0.028516715", "0.14410506", "-0.24997546", "0.11364168", "0.089677095", "0.014186218", "0.20456801", "0.103614606", "0.052708026", "0.21390969", "0.02276882", "-0.13251626", "0.061401855", "-0.1677961", "0.06906615", "0.04859839", "-0.07244454", "0.04095054", "0.017389625", "0.21125333", "-0.09032457", "0.06902965", "0.052756432", "0.16763313", "0.15371323", "0.057050567", "-0.002593219", "0.065513775", "0.057470586", "-0.10921386", "0.11655262", "-5.0727293e-05", "0.13189393", "-0.042233534", "-0.105781294", "0.06757036", "0.029500846", "0.06578248", "0.023796733", "-0.02013667", "-0.087016106", "0.1305376", "-0.13570628", "-0.09804012", "0.07015357", "-0.005532988", "0.12669356", "0.028970381", "0.057614982", "0.08602158", "-0.035460345", "-0.058090925", "-0.027777197", "-0.17872989", "0.025790915", "-0.00025306377", "0.13979593", "-0.06245053", "0.012966324", "0.183598", "0.07232165", "-0.14691225", "0.15977083", "-0.11603615", "0.014243657", "-0.07380044", "-0.08420453", "-0.015013675", "-0.038521223", "0.17777121", "0.22546725", "-0.026837151", "-0.0703588", "-0.052829165", "0.15999995", "-0.0343138", "0.22205305", "0.17051917", "0.11825684", "0.14156488", "0.06264521", "0.039353255", "0.09407415", "-0.10916477", "-0.061465714", "-0.15248276", "-0.04457076", "-0.1781031", "-0.09598675", "-0.17867786", "0.012479896", "0.06011708", "-0.1309384", "0.031185709", "0.16804306", "0.11432306", "0.14160825", "-0.00078324624", "0.10844184", "-0.056430034", "-0.07429171", "-0.00079856603", "-0.07028474", "0.19551033", "-0.058493026", "0.05941692", "-0.00096285954", "-0.03786361", "-0.13174652", "0.031306677", "-0.03828021", "0.009883612", "-0.027617585", "-0.050643582", "-0.04415671", "0.11490292", "-0.10653831", "0.09974108", "-0.06265143", "-0.066618524", "0.07340222", "-0.012088267", "-0.013592728", "-0.15395612", "0.17945659", "0.05670433", "0.077119276", "0.19262195", "-0.029781213", "0.20822208", "-0.005440499", "-0.0147515815", "0.0628768", "0.037215192", "0.0066483472", "-0.012005575", "0.10494746", "-0.13365056", "0.1326408", "0.028179757", "-0.10706793", "-0.04667327", "0.00977094", "-0.006797024", "-0.10612853", "0.008729065", "-0.022158703", "-0.04656684", "-0.09564629", "0.10957998", "0.13362302", "-0.15463476", "-0.0027921195", "0.14531977", "0.1235962", "0.005484145", "-0.10986484", "-0.0693088", "0.16029024", "0.18605077", "0.1209236", "-0.15038654", "0.17205924", "0.113035165", "0.10544374", "0.018263048", "0.091393694", "-0.07533462", "0.06938044", "-0.0051640403", "0.11369444", "-0.07987925", "0.19320662", "0.071331784", "0.012379713", "0.048185695", "0.114452496", "-0.17883515", "-0.08141699", "0.05678835", "-0.00547115", "0.072229505", "0.047043756", "0.10506525", "-0.08943595", "-0.22766648", "-0.048912965", "-0.0759966", "-0.0731154", "-0.014213331", "-0.17153937", "0.018851483", "0.0018078276", "0.01731384", "0.17055216", "0.12872486", "0.021560641", "0.120745495", "0.055671833", "-0.051013865", "-0.08390616", "-0.005708021", "0.1512978", "-0.02108572", "0.15943034", "0.09111644", "0.12941632", "0.09566384", "0.07151601", "-0.080032274", "0.031399302", "-0.08473893", "0.1678579", "0.20665725", "0.11297172", "-0.06596971", "0.07844398", "0.02783374", "-0.06578887", "0.1569794", "0.13084267", "0.029330952", "-0.026788995", "-0.009803656", "0.07318115", "-0.10257121", "-0.018433396", "-0.23475717", "0.0051287417", "0.16743499", "0.019071357", "-0.08147769", "0.123418294", "0.15624487", "0.02768703", "0.1842023", "-0.005829978", "-0.23730029", "-0.02243319", "0.1821958", "-0.036338013", "-0.05308472", "0.013886687", "0.0013569418", "-0.120269105", "0.0030390278", "0.0122109065", "0.10521434", "0.10949875", "-0.06862731", "0.06311977", "0.17064892", "-0.012182262", "0.09626373", "-0.0009401922", "0.10460447", "0.12735401", "-0.059797376", "0.0248635", "0.06047027", "0.13680397", "0.15404315", "-0.007817442", "0.094648436", "0.11792511", "0.081260376", "0.04228523", "-0.13826977", "-0.04792312", "0.1347021", "0.06646295", "-0.130349", "0.059718", "0.07508354", "-0.02807397", "-0.115531325", "0.03957284", "-0.022117738", "0.0391874", "-0.1388586", "0.04969855", "0.12097059", "-0.025944738", "-0.002264278", "0.061123814", "0.10395886", "0.011868016", "0.049054436", "-0.15415205", "0.010663514", "-0.0031319885", "0.043686498", "-0.13010535", "-0.08758117", "0.075880885", "0.072409034", "0.050742764", "0.004712747", "0.12111127", "0.03598774", "-0.081309974", "0.093876146", "0.12846501", "0.10645541", "0.093486704", "0.1297126", "-0.12659876", "-0.086308", "-0.04151353", "-0.11185029", "0.0514286", "-0.062291976", "0.14005892", "0.2120705", "-0.06611162", "-0.15472707", "0.031222878", "0.11144336", "0.119899936", "0.042004146", "0.22011714", "-0.16514619", "-0.19054483", "-0.049515087", "-0.1581099", "-0.11291888", "-0.14812207", "0.03655525", "0.20082256", "-0.18370438", "0.1345503", "0.12287284", "-0.07887569", "-0.12221153", "0.024650084", "-0.1433988", "0.16975848", "-0.09805982", "0.03372082", "0.054861836", "-0.042790815", "0.089031056", "-0.06268259", "0.16405079", "-0.060604397", "0.014671874", "-0.024618154", "-0.01704004", "-0.09884901", "-0.2105888", "-0.13356622", "0.1667593", "0.157043", "-0.14450085", "0.09460895", "0.1465214", "0.14318055", "0.049962003", "0.056469414", "0.2180582", "-0.11644571", "-0.16112413", "-0.035373274", "0.040997405", "-0.1751033", "0.10837043", "0.21278636", "-0.13701728", "0.09748746", "-0.05907932", "-0.1575197", "0.043346312", "0.11168625", "-0.19326945", "-0.20204718", "-0.08539434", "-0.12700416", "-0.09285537", "-0.12661777", "-0.017771762", "-0.1766462", "-0.08056525", "-0.045267902", "0.026551522", "-0.099908665", "0.012875035", "-0.092024535", "0.06110133", "0.0950979", "-0.0070329434", "0.13974042", "0.0037721267", "0.03965456", "0.07572614", "-0.1402786", "0.034359835", "-0.017121414", "-0.05115074", "-0.018266099", "-0.14108144", "0.013533711", "-0.040218942", "-0.2214342", "0.029660817", "0.09636826", "-0.046792187", "0.10546261", "0.08570716", "0.018642586", "0.03765356", "0.1335638", "0.1370404", "0.050347593", "0.011522842", "0.015335455", "-0.07660714", "0.032014173", "0.2121315", "0.016809458", "0.021313533", "0.13995363", "-0.07199214", "0.025180824", "0.059040364", "0.038914856", "-0.021046", "0.047064953", "0.05622967", "-0.12783194", "0.08500029", "0.0048574223", "-0.095318034", "-0.07206815", "-0.034547735", "-0.10745448", "-0.043700755", "0.117423005", "0.021186613", "-0.08924543", "-0.027875617", "0.0540816", "-0.014806712", "0.03072301", "0.1044253", "-0.046750307", "-0.11897026", "-0.05573316", "0.1704065", "0.048232697", "-0.06556816", "0.09992055", "-0.24968383", "0.08276701", "-0.027564298", "-0.017017182", "-0.04378821", "0.07124602", "-0.007016218", "0.058752324", "-0.1011367", "-0.14695285", "0.07646822", "0.100751996", "0.0590415", "0.023149088", "0.05899724", "-0.1929221", "-0.06535528", "-0.021286847", "-0.03059229", "-0.16532272", "0.053804107", "0.14310288", "0.046513405", "-0.091504335", "0.0033181324", "-0.0851903", "0.014836932", "-0.051777035", "0.19575447", "0.09585084", "-0.1785222", "-0.036974475", "0.09551166", "-0.045415737", "-0.14613976", "-0.033501714", "-0.2306385", "-0.04956703", "-0.02250761", "-0.15057674", "-0.067388415", "-0.07419052", "0.024945466", "0.07485351", "0.033148192", "-0.019846102", "0.00020921607", "0.112480134", "-0.16051485", "0.014967019", "-0.03325569", "0.027841108", "0.16391723", "-0.05864936", "0.020461114", "-0.0008519834", "-0.12524758", "0.08113904", "-0.19268064", "-0.12075736", "0.13120244", "0.019777456", "-0.08525592", "-0.060958005", "0.080734044", "0.03328445", "0.14416301", "0.09197546", "-0.07285727", "-0.09119569", "0.037778858", "-0.07230151", "0.02232813", "0.061284993", "-0.059534255", "0.012187532", "-0.058300223", "-0.16377926", "0.022138493", "0.059734955", "-0.08095332", "-0.08305785", "0.08171352", "-0.086647846", "-0.102606915", "-0.050117325", "-0.1904994", "0.057666756", "-0.186172", "-0.12665614", "-0.06464028", "0.07258626", "0.011320906", "-0.029380735", "-0.09852099", "-0.103068754", "-0.075808704", "-0.07593685", "-0.033361986", "0.15916643", "-0.019462092", "-0.11805359", "-0.022397807", "0.09095563", "-0.1576421", "-0.028776778", "0.1697545", "0.15843232", "0.09339611", "0.018610697", "9.9994686e-05", "0.088241704", "-0.07768404", "-0.0052927095", "0.08962582", "0.042633325", "0.11673317", "-0.12714577", "-0.014877984", "-0.008045392", "-0.049465023", "0.035464488", "-0.13496482", "0.13008788", "-0.110451765", "-0.03528235", "0.07400543", "-0.05460512", "0.08393656", "-0.23001586", "0.17784727", "0.09562827", "0.10329155", "-0.0025454608", "0.00015837529", "0.14068815", "-0.040424336", "0.13317463", "0.005621362", "0.09010353", "0.10494304", "0.12093314", "0.14163232", "0.005848185", "0.27111483", "0.005615642", "0.12892419", "0.15375917", "-0.007044218", "-0.14295888", "-0.0030813552", "0.107159704", "0.09736829", "0.10391004", "0.013677263", "0.033489067", "0.026751515", "-0.06498076", "-0.09148755", "0.09682266", "0.09082891", "-0.01822009", "-0.12711886", "0.1658183", "0.081781775", "0.10367696", "-0.014663384", "-0.14638554", "0.022079783", "0.0748551", "0.030520162", "0.075089045", "-0.042947922", "-0.08708026", "0.011310563", "-0.034877665", "-0.10080524", "-0.11639078", "0.19929157", "0.008522125", "-0.114685796", "-0.039886933", "-0.10074902", "0.094906345", "0.1906822", "0.025893474", "-0.15927465", "-0.03121801", "-0.018949473", "-0.0048499634", "0.04376351", "0.008733892", "0.10304615", "-0.17245068", "0.09530946", "0.19308738", "-0.05017226", "-0.056106456", "-0.12396438", "-0.18373573", "-0.017293764", "0.18142407", "-0.1983192", "0.14256673", "0.13830613", "0.19594362", "-0.05154587", "0.020193528", "0.07489159", "0.07115491", "-0.061045773", "0.004697166", "0.11781166", "0.06603703", "-0.12143629", "0.01864917", "0.049697608", "0.077973016", "0.14606127", "0.15607662", "-0.10979458", "-0.08515628", "0.19238177", "-0.16217706", "0.06536919", "0.049175736", "-0.22228478", "-0.057462685", "0.009531943", "0.06357838", "0.14547876", "-0.14188367", "-0.097932555", "0.04862469", "0.16490975", "0.013519459", "-0.07506145", "-0.031983137", "0.056887023", "-0.00336825", "0.06331976", "0.06161903", "0.058163654", "-0.07351947", "-0.01639298", "0.23058167", "0.033550803", "-0.028836362", "-0.045642827", "-0.041742265", "0.037648316", "0.06514256", "0.0078069204", "-0.17430514", "0.11026897", "0.0297724", "-0.09792501", "-0.0071658976", "0.042415626", "-0.15890895", "-0.025347682", "-0.15618367", "0.0981699", "-0.07429177", "0.08294483", "0.08039237", "-0.17602779", "0.13023701", "-0.010383562", "-0.03685119", "0.06612494", "0.11617321", "0.108362705", "-0.028939158", "0.04985603", "-0.023882477", "-0.18336517", "0.14333576", "-0.07579041", "0.05353056", "0.043760747", "0.051342268", "-0.15369914", "-0.0012453469", "-0.10946887", "-0.14530252", "-0.01367394", "-0.22045498", "0.050805993", "0.03218642", "0.19825184", "-0.1309349", "-0.016723976", "-0.07421416", "-0.113451876", "0.16448559", "-0.09293623", "-0.18450457", "0.0071682427", "0.13801987", "0.107879914", "-0.0738464", "0.049858615", "-0.123284474", "-0.024306508", "0.15829587", "0.033183947", "-0.14485557", "-0.15355615", "-0.067597724", "-0.042058397", "-0.23159242", "0.18268217", "-0.017008793", "-0.088857695", "0.103908174", "0.0086367875", "-0.10419197", "0.018841235", "-0.062564865", "-0.15149985", "0.043662153", "0.04696846", "0.15062942", "-0.06452137", "-0.12965214", "-0.13259351", "0.093938224", "0.05172088", "-0.10913868", "-0.19979835", "0.069155574", "0.008584026", "-0.008885411", "0.11039705", "0.04874744", "-0.16004837", "-0.11699232", "0.07981816", "0.051848464", "0.0833726", "0.21423484", "0.0966336", "-0.14327829", "-0.072923064", "0.122601606", "0.021769326", "-0.0188671", "0.03101134", "0.08301174", "-0.15801829", "0.14265199", "-0.12621182", "0.08811196", "0.0688463", "0.07661405", "-0.022434564", "0.22119646", "0.051796384", "-0.020997763", "0.037147652", "-0.1498511", "0.038643558", "-0.042916838", "-0.11217272", "0.021648392", "0.20770551", "-0.055737097", "0.027793592", "0.11365731", "-0.10904761", "0.12466677", "-0.013266473", "-0.09974949", "0.016794024", "0.0790581", "-0.1534938", "0.031919338", "-0.05780922", "0.05565598", "-0.05584918", "0.04966869", "0.016262366", "-0.08414399", "-0.13169807", "-0.019088307", "-0.107552916", "-0.12524712", "0.02056302", "0.10389484", "-0.053521715", "-0.008826323", "-0.10593456", "-0.09037324", "-0.05816518", "-0.012187276", "-0.13020325", "-0.080033205", "-0.08662108", "-0.116295196", "-0.21252574", "0.041374844", "-0.062154982", "-0.21173602", "-0.06568051", "-0.09527982", "-0.014255324", "-0.06904552", "-0.024251841", "-0.034216963", "0.09371654", "-0.10105726", "-0.056954917", "0.00740776", "0.05014868", "-0.06388869", "-0.046007965", "-0.08240092", "0.07973632", "0.040493384", "0.092603125", "0.17168906", "-0.21722232", "0.11204071", "0.23126192", "-0.022092449", "0.101286314", "0.13153794", "0.057187572", "-0.020053608", "-0.11511601", "-0.16144323", "0.05889121", "-0.15236942", "-0.02809155", "-0.06975506", "0.09748976", "-0.2225475", "-7.531598e-05", "-0.16076909", "0.1404326", "-0.0100711", "-0.03607323", "-0.15406132", "0.14113854", "0.013632099", "0.083555385", "-0.11153891", "-0.12139182", "-0.054856792", "0.13172305", "-0.20376103", "-0.04562043", "0.09671821", "-0.1093838", "0.07899022", "0.2187869", "-0.007435107", "-0.02860755", "0.19359796", "-0.0031548054", "0.025399951", "0.15919468", "-0.19033727", "-0.060958974", "0.062261663", "0.021534001", "-0.113412775", "0.059692428", "-0.029147321", "0.076197326", "-0.0161801", "-0.10803918", "0.0969351", "0.011320683", "0.030677522", "-0.13252337", "-0.04157564", "0.015082315", "0.20237182", "-0.0147652645", "0.062378317", "0.088795654", "0.077422224", "0.07422519", "0.18183017", "0.072054714", "-0.10554697", "-0.12473578", "0.18119018", "0.13081466", "-0.22896796", "0.14333116", "0.14643835", "-0.13523646", "0.1396172", "0.080117114", "0.20915438", "-0.04061778", "-0.07963992", "0.005061178", "-0.026838884", "-0.038661234", "0.18560909", "-0.12332475", "0.04068414", "0.11515374", "-0.034464553", "-0.01881673", "-0.083076425", "-0.09548972", "0.16756153", "-0.03166332", "0.10865675", "-0.09408644", "0.16818409", "-0.030854378", "-0.009062835", "-0.1051174", "0.06377217", "0.031458933", "0.0228158", "0.04004979", "-0.16669974", "0.010504835", "0.09080874", "0.11189945", "0.05506657", "-0.04244836", "0.08884911", "-0.13688542", "0.04380207", "0.11519554", "-0.00075443985", "0.18293549", "0.11625233", "-0.0899659", "-0.045744352", "-0.11109542", "-0.035344616", "0.13629378", "0.031053204", "0.23608033", "0.095389664", "0.14039935", "-0.075803086", "-0.009954491", "0.120463766", "-0.09232846", "0.020467842", "0.037715767", "-0.13596909", "0.022454625", "0.15305085", "0.0899408", "0.029700557", "-0.0058542066", "-0.04074318", "0.072689906", "-0.07861868", "-0.11547887", "0.16435444", "-0.03443543", "0.10914957", "-0.17113207", "-0.04858672", "-0.06477704", "-0.037467685", "0.041638024", "0.040597115", "-0.04752837", "-0.028451532", "0.114381626", "0.04065069", "-0.20595726", "-0.0054828404", "-0.0818436", "-0.07137347", "-0.103466034", "-0.038269944", "0.18077707", "-0.05827835", "0.11025679", "-0.01871615", "0.08000664", "-0.27153608", "-0.05871524", "0.038631048", "-0.092259414", "0.012354281", "-0.13963558", "-0.054036777", "0.1779137", "0.26239765", "-0.16607118", "0.02510216", "0.1185876", "0.1022856", "0.06603438", "0.15551949", "0.02717214", "-0.034114193", "-0.107015334", "0.07205571", "-0.006637203", "-0.22982985", "-0.127574", "0.17156297", "0.107687324", "-0.038533676", "-0.024487842", "-0.02499145", "-0.123073116", "-0.1344007", "0.0044864225", "0.06865574", "-0.045121837", "0.041658465", "0.10540198", "-0.0077042184", "0.12090102", "-0.10102267", "-0.12848309", "0.20549035", "-0.05944167", "0.17772186", "0.16428076", "-0.11961317", "0.15167463", "-0.15475217", "0.010621836", "-0.042610653", "-0.06761648", "0.08537633", "-0.01494012", "-0.010913435", "-0.18651703", "-0.1674478", "-0.03304", "-0.021402236", "0.03558657", "0.12597677", "-0.015735846", "0.15246895", "0.06604647", "0.09931055", "-0.03693028", "-0.12029408", "0.0321771", "0.09829974", "0.1533813", "-0.12003602", "0.14707029", "-0.042893104", "0.021074822", "0.15956508", "-0.034510937", "0.14671434", "-0.15920526", "-0.045495383", "0.017797578", "-0.087263115", "-0.16031507", "-0.019323058", "0.18188313", "0.08345151", "-0.18920928", "-0.068546996", "-0.028573476", "-0.12299241", "0.06677214", "0.05756278", "0.034775432", "-0.08339116", "-0.06144487", "0.1300165", "0.08315552", "0.10962098", "0.18962808", "-0.1400142", "-0.09276151", "0.13720536", "0.0571119", "0.06634143", "-0.18956947", "-0.2648653", "-0.00059062225", "0.04732016", "-0.08762291", "0.0046110577", "-0.12040761", "0.12341355", "0.0682712", "0.12304192", "-0.09441638", "0.11554922", "0.10660198", "-0.12732849", "-0.011050837", "0.010989929", "-0.13696925", "-0.061815623", "0.06500357", "-0.019400848", "0.017155675", "0.052203014", "-0.10851703", "0.057518385", "-0.14805365", "-0.035392407", "0.15639608", "-0.1269825", "-0.02710244", "-0.13665074", "-0.18582115", "-0.11672249", "-0.0056859907", "-0.014165499", "0.0037165314", "0.2043196", "-0.09091721", "-0.11757626", "0.21211097", "-0.1295024", "0.077582404", "0.06636194", "-0.022534478", "0.001202296", "-0.04639532", "0.0035367021", "0.09718587", "0.15315889", "-0.027053101", "0.011294693", "0.015625121", "-0.012003668", "0.03451405", "0.041958064", "-0.022906039", "-0.05629816", "-0.04283042", "-0.053097952", "0.08723077", "-0.112237155", "-0.036418628", "0.12758017", "-0.024301121", "0.025616264", "0.026858792", "0.056578234", "0.12403885", "-0.04652701", "-0.21360217", "-0.035293955", "0.010416399", "-0.12160279", "0.033575088", "0.13093843", "0.07351089", "0.066567786", "-0.06230224", "0.013351743", "0.060226098", "0.042756703", "0.044403456", "-0.14500661", "0.1732349", "-0.22918178", "0.0046936395", "0.06035787", "0.08292428", "-0.1379062", "-0.091628514", "0.1236002", "-0.21470386", "-0.04795988", "-0.099129945", "-0.09375643", "-0.17017613", "0.23757678", "0.019786863", "-0.07694913", "0.0065199183", "-0.122344345", "-0.18472733", "-0.15663798", "0.12268241", "0.06659607", "0.019476792", "0.10556113", "-0.013426766", "-0.0031859325", "-0.13515785", "0.19289681", "-0.085559264", "0.09623936", "0.19164364", "-0.11706327", "0.075171575", "-0.14977852", "0.07553997", "0.06936965", "0.20228502", "0.017133325", "-0.046516303", "-0.08097054", "-0.13590114", "-0.13766378", "0.03800267", "-0.024669526", "-0.06682561", "0.117679924", "0.10584414", "0.019062731", "0.016954094", "-0.057887435", "0.040056895", "0.019220408", "0.17332914", "-0.0034894564", "0.15385368", "0.08196738", "-0.0334522", "0.07817515", "0.21218891", "-0.049554165", "0.08778649", "0.19101112", "0.0702419", "0.09123074", "-0.023073504", "-0.09015561", "0.07374527", "-0.23589092", "0.0019798065", "0.07656827", "-0.1376177", "0.052130565", "0.057581943", "0.057850026", "0.11724271", "0.19003266", "-0.10434285", "-0.07778197", "0.069692194", "0.002055639", "-0.16293514", "-0.09919373", "0.08664764", "0.09130302", "-0.047248706", "0.13334385", "0.053982385", "0.059515223", "-0.033685517", "0.1054393", "0.036831237", "-0.026347766", "0.027412983", "-0.10046513", "-0.08396304", "-0.12430438", "-0.00028002897", "0.07601759", "0.00079134403", "0.24631952", "0.106935956", "0.011772235", "0.097573", "0.019618137", "-0.114114106", "-0.12414302", "-0.2165192", "0.07713537", "0.076957025", "-0.21412349", "-0.121956885", "0.08183423", "-0.13532324", "-0.057585996", "0.07885514", "0.06196476", "0.08268103", "-0.08567829", "0.046804152", "-0.020531071", "0.13174307", "-0.12166733", "0.032974213", "-0.0023766134", "0.049971703", "-0.15527034", "0.09058637", "-0.15088421", "-0.055175602", "0.16047457", "-0.025954645", "0.1308874", "-0.0063502844", "0.08530178", "-0.038129475", "0.04119415", "0.053275947", "-0.11199235", "0.13265064", "-0.19388415", "-0.105350815", "0.08095091", "-0.09345617", "-0.164162", "-0.19872351", "0.019926243", "0.14515187", "0.080897704", "0.1085587", "-0.11638472", "-0.08014928", "-0.07788797", "-0.11710841", "0.007830353", "-0.017730374", "0.011913202", "0.017500903", "0.0043585054", "0.07221703", "-0.059758246", "0.12025469", "-0.026510522", "0.16057545", "-0.08640151", "-0.07950634", "-0.014000673", "0.08348847", "0.08528677", "-0.15239881", "0.0023135478", "-0.1615835", "0.11044234", "0.019997193", "-0.08271064", "-0.15200937", "-0.1469091", "0.1617621", "0.13336694", "0.11168303", "-0.076001495", "0.050140273", "0.015292225", "-0.13976265", "-0.1422907", "-0.118146546", "-0.008391377", "-0.121439435", "-0.006806459", "-0.07612236", "-0.15167361", "-0.039071452", "-0.13360365", "-0.081172235", "-0.10089191", "0.10055928", "0.033715323", "-0.2165247", "0.11499247", "0.0063390452", "0.07593121", "0.13073395", "-0.039614443", "0.07614823", "0.03154426", "-0.004359634", "-0.102718234", "0.08632501", "0.13055177", "-0.04753068", "0.06360494", "-0.15896311", "0.15355356", "-0.17094468", "-0.021199804", "0.15745915", "0.09043741", "-0.04849364", "-0.104128405", "-0.11362118", "-0.03229531", "0.029837845", "-0.07505367", "0.06762254", "-0.02931293", "0.12178719", "0.09073002", "0.05531471", "0.12864493", "-0.10695155", "-0.04757028", "-0.041137695", "-0.04612035", "0.109754615", "-0.11581771", "0.18876703", "-0.116888456", "0.09045898", "0.036913026", "0.15137021", "-0.028144877", "-0.0016682883", "0.0683379", "-0.13875975", "0.026591439", "0.108071506", "0.089259006", "0.034129377", "-0.044434953", "-0.016379913", "0.029487943", "0.043352406", "0.041700736", "-0.019286547", "-0.07118143", "-0.006676499", "0.063842714", "0.104467586", "0.045891263", "-0.0317084", "0.055974495", "-0.0538941", "-0.0008785276", "-0.050795846", "0.09582529", "0.09233647", "-0.12679112", "0.001374062", "0.18903495", "0.0053346674", "-0.0893078", "0.043462504", "0.019508215", "0.014143163", "-0.23927842", "-0.015230072", "-0.027190464", "0.20835811", "-0.071253896", "0.08840563", "-0.06965766", "-0.039147", "-0.06244274", "0.14605398", "-0.045249674", "0.1593944", "0.06381925", "-0.12423237", "0.045614094", "-0.19653161", "-0.10057991", "0.10838804", "0.110827796", "-0.11808017", "-0.15175688", "0.13313475", "-0.18436208", "0.010908258", "0.06818045", "-0.02829689", "0.15623413", "-0.04389395", "-0.01323015", "-0.018397171", "0.07072472", "0.02958926", "-0.1462066", "0.0037281027", "-0.05773432", "-0.13090494", "0.117986515", "0.011440089", "-0.07294095", "0.09436517", "0.018880688", "0.07543859", "-0.08488166", "-0.08084044", "0.011291473", "-0.055107877", "-0.08550357", "0.06583095", "-0.066779144", "0.11108337", "0.011974522", "-0.16695891", "-0.2225786", "-0.12244561", "0.0031772424", "-0.076484196", "-0.022387158", "0.0503438", "-0.18186902", "0.016138399", "0.09613917", "0.15122798", "-0.23671193", "0.026949279", "0.015805813", "-0.08569318", "-0.011844536", "0.03496454", "-0.14621651", "0.05917561", "0.16147771", "-0.09252137", "-0.07081694", "0.2143582", "-0.10057435", "0.060901683", "0.07295252", "0.05006565", "0.024592068", "-0.09692004", "0.02533002", "-0.020632923", "0.0977117", "-0.075347774", "-0.06415799", "0.09046903", "0.09656208", "0.09564773", "0.0048643197", "-0.019518202", "0.06498131", "-0.101821855", "-0.08504149", "-0.094863094", "-0.2322552", "-0.13345434", "-0.12096259", "0.034295037", "-0.0009039815", "0.017826075", "-0.07803025", "0.14966518", "-0.079560325", "-0.185042", "0.1296863", "-0.04108872", "-0.14876357", "-0.021447744", "-0.110606164", "0.09766118", "0.0708206", "0.08148741", "-0.11356567", "-0.04250297", "0.0118832085", "-0.021883955", "-0.07346706", "-0.12890384", "-0.090737306", "0.13877653", "0.095190875", "0.17261276", "0.09878278", "-0.07654574", "0.06859677", "0.124153025", "-0.050233167", "0.04451696", "0.012743778", "-0.07575631", "0.011495087", "0.16043499", "-0.014224803", "0.0019525408", "-0.13205566", "-0.16116445", "0.19140749", "0.047726654", "0.046391476", "-0.122652896", "0.06356211", "0.033951804", "-0.18664685", "0.0011956008", "0.1387468", "0.10864551", "-0.20094845", "0.05896192", "-0.05148435", "-0.051965527", "0.10146137", "0.12004556", "0.13530304", "0.124805614", "-0.009966021", "0.04325055", "0.0291942", "0.09667511", "-0.068691574", "0.12697996", "0.09304894", "-0.17001969", "0.0045263655", "-0.08112353", "-0.030418338", "0.059593163", "-0.14761487", "-0.02147644", "0.030139782", "-0.059540596", "-0.10158539", "-0.019251287", "-0.1398612", "0.1323342", "0.003519759", "-0.016028764", "-0.06197015", "0.17272648", "-0.057531707", "0.08003484", "-0.118141465", "0.046042", "0.0140444245", "0.08046766", "-0.033232085", "-0.1529161", "0.03206077", "0.05198989", "-0.060483087", "-0.13644247", "0.08238196", "-0.13127536", "0.02574043", "0.08594697", "-0.12243982", "-0.034032375", "0.01858079", "-0.1926588", "-0.0873152", "-0.057154916", "-0.08132695", "0.057341006", "-0.029647514", "-0.14191253", "-0.013488412", "-0.13730225", "0.07888312", "0.02367936", "0.11190457", "-0.007065012", "0.038490057", "-0.134721", "-0.12027679", "0.028281849", "0.09852936", "-0.0129595185", "0.099111624", "-0.044826176", "0.14023022", "0.086292215", "0.1403628", "0.029262567", "-0.15966003", "-0.0025128222", "-0.06660185", "-0.01575948", "0.10081028", "-0.06021483", "0.11272697", "-0.012485364", "-0.117043376", "-0.025467187", "-0.02090753", "0.13592838", "-0.099268295", "-0.09075339", "0.090495385", "-0.012445366", "0.04891275", "0.18820171", "0.11449458", "-0.10546139", "0.14499553", "0.003606579", "0.027568733", "0.067376755", "-0.15576643", "-0.0766031", "-0.028870199", "-0.095639825", "-0.13566798", "0.083110206", "0.17226903", "0.16089872", "0.18295309", "-0.16404623", "0.035185024", "0.13354832", "-0.050237812", "-0.011117692", "0.015025976", "0.09047101", "0.05591185", "-0.10574865", "-0.12127974", "0.1485738", "0.07474045", "0.12929119", "-0.014104867", "0.13726309", "0.095745444", "-0.15431237", "-0.18462536", "0.08383667", "-0.04452589", "-0.005357099", "-0.05553336", "-0.035922732", "-0.06589566", "0.02981311", "-0.016972048", "-0.009582807", "0.20346723", "0.049810413", "0.045686807", "-0.023032226", "0.108835734", "-0.027133362", "0.16154468", "-0.11359572", "-0.16422687", "0.13657638", "0.10099389", "0.11276441", "0.0010333998", "-0.113774545", "-0.11583552", "-0.073348664", "-0.056310683", "-0.11936026", "-0.06065273", "-0.08164753", "0.06800482", "0.07137459", "0.020646278", "0.07121542", "0.19137116", "0.04784844", "-0.09045941", "0.047661398", "-0.06826952", "0.021976946", "0.053273365", "0.21144065", "0.17800991", "-0.07090589", "-0.22522214", "-0.0011722305", "-0.03797389", "0.035947308", "-0.092508405", "0.21253234", "0.11639009", "0.060066603", "0.046507973", "0.05626518", "-0.01160139", "-0.035979852", "0.10874416", "-0.122046866", "0.018508865", "-0.10595539", "0.19108157", "0.07433311", "-0.08178709", "-0.07508081", "-0.122386225", "-0.050518718", "-0.06950963", "-0.07690463", "-0.010515834", "-0.18880521", "0.14276838", "-0.09924966", "0.026487624", "-0.060362622", "0.16670285", "-0.104979284", "0.09710859", "0.022768391", "-0.10270594", "0.13748227", "-0.14050713", "0.09979577", "0.075290784", "0.073953845", "-0.0015772125", "-0.1156533", "-0.038355205", "-0.08645482", "-0.104576364", "-0.08214801", "-0.11577829", "-0.031494115", "0.14215378", "0.11393671", "-0.0685381", "-0.051078662", "0.118845366", "0.063919544", "0.048887536", "0.06611567", "-0.09155845", "-0.0743904", "0.12463873", "-0.088612676", "0.09636553", "0.03232203", "-0.08995537", "0.04666156", "0.05397831", "-0.079736024", "0.031706534", "0.21431097", "0.06999128", "0.08165752", "-0.21712193", "0.03941021", "0.20265535", "0.07821087", "0.058287103", "0.16187753", "0.11414621", "0.09970995", "0.005226016", "0.09798825", "0.101239026", "-0.13972354", "-0.14989549", "-0.031795785", "-0.059510335", "-0.0067929802", "-0.010706135", "0.14879471", "0.14515509", "-0.04263659", "-0.052735485", "-0.11619185", "-0.12356758", "0.059721317", "0.070487924", "-0.09890916", "-0.049085304", "-0.019252447", "-0.011485553", "-0.0838397", "-0.0741713", "-0.059518564", "-0.054492064", "-0.13896178", "-0.14149325", "0.12303465", "0.12000785", "0.1277003", "0.12399069", "-0.026013764", "-0.020157555", "0.048130337", "0.05093093", "0.08995969", "0.095448524", "0.07347257", "0.08557715", "0.10789885", "0.11374542", "-0.048695534", "-0.060531765", "0.018274536", "0.03490086", "-0.019506272", "-0.011532354", "0.010897366", "0.0087921005", "0.07086732", "0.064183936", "-0.039604302", "-0.048122488", "-0.09396182", "-0.094848804", "-0.012924941", "0.00024293308", "-0.14026739", "-0.13687877", "0.021124532", "0.029498719", "-0.035215817", "-0.022393832", "-0.14757608", "-0.14558898", "-0.013334751", "-0.016494922", "-0.03974133", "-0.02756599", "0.030528985", "0.03172024", "-0.040018007", "-0.033916105", "0.07798694", "0.07422656", "-0.16278934", "-0.16128758", "-0.050000433", "-0.046275336", "-0.008204624", "-0.005157787", "0.031646848", "-0.028970346", "-0.10408854", "-0.13141273", "-0.1123274", "-0.10731058", "0.037831906", "0.014117011", "-0.0031007903", "-0.00037026606", "-0.14436847", "-0.1337315", "0.051979102", "0.058705352", "0.21544838", "0.23049733", "-0.121968", "-0.12103633", "-0.010434125", "-0.010590927", "0.073304206", "0.06758504", "-0.062496755", "0.07944836", "-0.039409675", "-0.053443883", "-0.065067545", "-0.06110213", "-0.15262882", "-0.15343705", "-0.07604535", "-0.08339802", "0.124789566", "0.12652747", "-0.04750434", "-0.06181178", "-0.07195913", "-0.06836008", "-0.062864624", "-0.0035832685", "0.012448237", "0.029824615", "0.05308674", "0.06337557", "-0.010093026", "-0.008248462", "-0.21264729", "-0.1925195", "-0.17150669", "-0.18486108", "-0.17534658", "-0.17934076", "0.04667296", "0.0012807278", "0.11626442", "0.125554", "-0.12350387", "-0.11809979", "0.18128458", "0.23872653", "0.19478637", "0.19624615", "0.17929193", "0.1113529", "-0.09802164", "-0.094503485", "-0.057928007", "-0.0574938", "0.02361923", "0.028440315", "-0.09136396", "-0.08780029", "0.019805655", "0.030248849", "0.057856154", "-0.11501919", "-0.010519531", "-0.0147882905", "0.032104246", "0.028412482", "0.06524335", "0.05583638", "0.17914067", "0.18182884", "0.119675905", "0.13230641", "0.0032654414", "-0.005378502", "-0.114552036", "-0.10380067", "0.0070267636", "0.0024475204", "0.047901273", "0.043729916", "-0.0053034937", "-0.00032589986", "0.029908335", "0.029995454", "-0.03702863", "-0.0033019125", "-0.0120586995", "0.009892079", "0.16249546", "0.15242629", "0.026425403", "0.015824033", "-0.06706834", "-0.057504755", "-0.025130784", "-0.012700021", "-0.018822024", "-0.020001773", "0.060158152", "0.05123161", "0.04063988", "0.040271893", "0.12535526", "0.1120056", "0.05683766", "0.058859613", "-0.09434275", "0.094342805"]