["0.51022404", "0.7166481", "0.24117722", "-0.015150167", "-0.020851003", "0.47600868", "0.57702065", "-0.19663139", "0.03389169", "-0.3037702", "0.41268554", "0.18190843", "-0.606762", "-0.53025895", "-0.2790203", "-0.1609551", "0.14755642", "0.20579287", "0.041625153", "0.063554786", "0.19657697", "1.1558998", "-0.3208517", "0.3266964", "0.09528005", "0.24104345", "-0.25925863", "0.10843102", "-0.7495325", "-0.14914978", "0.25898042", "-0.021392234", "0.00051515864", "0.5341245", "-0.16161428", "0.5783185", "-0.22880316", "0.007716086", "-0.5483454", "-0.7872285", "-0.26855484", "-0.1081018", "-0.14856124", "0.3986308", "1.3296796", "-0.31181633", "-0.049156073", "0.053440046", "0.027035663", "0.44993576", "-0.27734482", "0.38158607", "-0.00073977775", "-0.16927733", "-0.16744511", "0.160672", "-0.15019497", "0.097719595", "-0.063402094", "-0.8230858", "-0.461761", "-0.24642631", "-0.021426832", "0.30331287", "-0.5202422", "-0.5840357", "-0.38538623", "0.07994121", "-0.1963157", "-0.118629456", "-0.19584918", "-1.3823749", "0.21554537", "-0.16630128", "-0.069692776", "1.3066614", "-0.16690406", "0.6356489", "-0.14540493", "0.04378981", "-0.010114958", "-0.0639331", "-0.09501795", "0.047267687", "0.18392931", "-0.5218714", "-0.9692594", "0.6114362", "0.31794882", "0.3753346", "-0.09925633", "-0.2680818", "0.8101566", "0.22012867", "0.119571194", "0.2531785", "-0.03778391", "-0.45591843", "0.3378146", "-0.129134", "0.34908554", "0.1986899", "-0.23907505", "0.23419693", "0.25948802", "0.028953666", "0.017109616", "-0.11477425", "0.08909924", "0.12798741", "-0.34910482", "0.43416792", "0.1015598", "0.019484058", "-0.2704468", "-0.07878656", "-0.24982327", "1.9802449", "-0.36994216", "1.3869808", "-0.017780717", "-0.1790847", "0.419305", "0.11783091", "0.4647176", "-0.09228991", "0.0035479248", "0.12033365", "-0.46853006", "-0.61682993", "0.3550469", "0.21978131", "-0.18064806", "-0.17774853", "0.29100108", "0.044222992", "0.36367097", "-0.44250134", "-0.2502152", "0.55643487", "-0.1985608", "-0.1161994", "0.1651761", "0.56861544", "0.06124451", "0.15395722", "-0.13211614", "-0.32991", "-0.07197049", "0.25948933", "0.793219", "-0.29670033", "0.34596273", "0.1400128", "-0.032310203", "-0.24966179", "0.32502675", "-0.020461002", "-0.22154494", "0.10329956", "-0.012941452", "-0.26957336", "0.099373415", "0.009220995", "0.6309303", "-0.6404525", "0.056290984", "0.1320826", "-0.26403996", "-0.15790662", "-0.5875911", "0.61852866", "-0.2549016", "-0.24441847", "0.16332923", "-0.14154719", "-0.52478844", "0.39908", "0.3301532", "-0.5749689", "-0.479192", "0.5471779", "-0.112525165", "-0.30680978", "0.019090565", "-0.3549573", "-0.99599624", "-0.19327189", "0.3160869", "0.21438916", "0.10892905", "0.10396856", "-0.12436277", "-0.08944846", "0.48672345", "0.34639195", "0.32318753", "-0.37995493", "0.022322781", "0.25699663", "-1.2537621", "-0.69091713", "0.2264073", "-0.067357235", "0.24488865", "-0.13293067", "-0.018210284", "0.580229", "-0.6485926", "0.20556486", "0.7066254", "-0.026709568", "-0.17684546", "-0.04761817", "0.58224654", "-0.17417198", "-0.22809045", "-0.16900077", "0.36579433", "-0.1968006", "-0.06162214", "0.05320377", "0.5768313", "-0.13103956", "-0.08736186", "0.13585502", "-0.27179316", "0.52764046", "-0.5026784", "-0.114014335", "0.43179712", "0.07385325", "-0.6339045", "-0.4100539", "0.05642212", "0.12468012", "0.3525878", "-0.22661991", "0.48361078", "0.09355305", "0.20300795", "-0.1528348", "-0.1301503", "0.24801512", "-0.26476905", "-0.0020491744", "-0.50191253", "0.27445588", "0.3700351", "0.48486602", "0.21657102", "0.0037973812", "-0.38938427", "1.5790694", "-0.30354556", "-0.13099515", "-0.05949266", "0.23122355", "-0.182001", "-0.06230586", "0.8470439", "-0.31029528", "-0.53597444", "0.5917634", "-0.008512506", "-0.5712355", "0.05240235", "-0.2737332", "0.2755005", "0.35116845", "-1.2692969", "0.25736374", "0.19226833", "-0.69995266", "0.020553917", "-0.07699561", "0.54209566", "-0.6671564", "-0.007864305", "0.48227933", "0.3387055", "0.22326225", "-0.20093362", "-0.19387083", "0.22207426", "0.1419754", "-0.7306021", "-0.44783628", "0.015965365", "0.3237681", "0.2337745", "0.029688595", "0.30039355", "-0.6824269", "-0.20845884", "-0.7412957", "0.053266473", "0.73482424", "-0.71137357", "-0.57734317", "-0.1972856", "0.2668117", "0.6153026", "0.08913597", "0.0067799743", "0.26651356", "-0.6686303", "-0.87667763", "-0.117416926", "-0.13240008", "-0.23046155", "0.3698803", "-0.42486134", "-0.601958", "0.049874254", "0.2293637", "-0.12878205", "0.26222625", "0.295813", "-0.30820364", "-0.27787927", "-0.09078425", "0.2043809", "-0.14385656", "0.2688058", "0.055626407", "1.7828336", "-0.14280547", "0.5721663", "0.42329356", "-0.081576034", "-0.11863817", "-0.42877647", "0.2412197", "-0.17003275", "0.30935186", "-0.20497824", "0.31964177", "0.3317439", "0.34631288", "-0.13094263", "-0.24500911", "0.054906268", "-0.16665016", "-0.074809", "-0.23676756", "0.23280501", "0.10637686", "0.2151806", "0.2593701", "-0.29261312", "0.03707306", "0.416786", "0.08854297", "0.8863191", "0.07314827", "-0.31145728", "0.18018489", "-0.15217586", "-0.11214847", "-0.13976365", "0.15384933", "-0.17248084", "-0.20377441", "0.44889283", "0.23790495", "0.4654106", "-0.10200672", "-0.39836502", "-0.822629", "-0.1500944", "0.26266664", "0.29677448", "-0.68167114", "-0.8067247", "-0.04033571", "-0.103882216", "-0.58374125", "-0.22510304", "-0.28831255", "0.12416798", "0.5888071", "0.18581975", "0.23209004", "-0.1126999", "0.06498556", "0.041326307", "-1.174618", "0.21225813", "-0.54811436", "0.023998639", "0.26769543", "0.4880226", "0.33900344", "-0.17061579", "0.39638844", "0.09701389", "0.11392929", "0.2343281", "-0.42648357", "-0.43067804", "0.3339266", "0.29585817", "2.1537495", "-0.113488436", "0.2605417", "0.050535556", "-0.0070537385", "-0.2530899", "-0.041594196", "0.2241537", "-0.30255446", "-0.35359484", "0.80468273", "0.37695974", "0.28387713", "0.2092908", "0.00091121445", "0.07022843", "-0.06524775", "0.010469968", "0.005645818", "0.043071903", "0.0880191", "0.2948806", "-0.23799121", "-0.13125753", "-0.01977886", "0.3051287", "-0.21075678", "0.27660793", "-0.111183956", "0.09235328", "-0.31837386", "0.012910502", "0.6919212", "-0.12831703", "-0.16800755", "-0.57822967", "-0.4300663", "-0.68011665", "-0.0006240861", "1.1038177", "-0.09743321", "0.11111931", "0.1455468", "0.040587578", "0.48555893", "0.47181562", "0.30819505", "-0.23256443", "0.08575232", "-0.11918038", "-0.40366384", "0.20152901", "-0.04218369", "-0.29204342", "0.21266975", "0.23062645", "0.8161569", "-0.19171816", "-0.15970416", "0.092857815", "-1.0272214", "-0.34120354", "-0.11858765", "0.35132268", "0.20001476", "-0.3335193", "-0.32849494", "0.0006235947", "-0.41239557", "-0.08715413", "0.25692323", "0.20621625", "-0.5972848", "0.5100794", "0.23726149", "0.6392085", "-0.11206502", "-0.60033524", "-0.26988524", "0.22250874", "-0.070213646", "-0.038253356", "-0.13064948", "-0.019687558", "-0.19224134", "0.35885593", "-0.050381362", "0.25296888", "0.40670988", "0.04448186", "0.5831947", "0.20569119", "-0.9018875", "-0.25867695", "-0.8261986", "0.18719436", "0.20475043", "0.101075195", "-0.328801", "-0.1371415", "-0.08597339", "-0.5342267", "-0.42336783", "-0.6587095", "-0.7866257", "-0.16497973", "0.06478388", "0.63013965", "0.025021438", "0.102758124", "0.3882282", "-0.11650443", "0.11738279", "0.01018823", "0.01280426", "-0.79040915", "-0.2237834", "-0.18506566", "0.2520402", "-0.3108533", "1.310224", "0.12861983", "-0.23843272", "-0.24741994", "0.24485567", "0.121579334", "-0.05854297", "0.18198985", "0.09747662", "0.18773906", "0.17612946", "-0.42535874", "-0.010127442", "0.27925885", "0.31299445", "-0.25164416", "0.05510454", "0.07734906", "-0.26233748", "0.029284537", "-0.15386766", "-0.24394038", "-0.32701084", "0.3757717", "-0.09191468", "0.18367979", "-0.12077836", "0.3435469", "-0.42385298", "-0.30759224", "-0.08653744", "-0.085594565", "-0.51375395", "-0.05916506", "-0.13561787", "0.3881752", "-0.36389446", "0.09411056", "0.64154094", "-0.040535577", "-0.6287475", "-0.13531892", "0.22010386", "0.3876878", "-0.10229927", "0.16210894", "-0.40214375", "0.31157672", "0.10656843", "-0.16968308", "0.25266942", "0.42386764", "-0.23425065", "0.2668527", "0.10675952", "-0.22034237", "-0.30558068", "0.17711955", "0.1280504", "0.19318171", "-0.029195962", "1.4132416", "0.58041", "0.12697677", "0.074448936", "-0.09210329", "0.13561867", "-0.7187923", "0.18776591", "-0.061329987", "-0.8502632", "-0.27052733", "-0.0045072874", "0.08111488", "0.30890954", "-0.14257322", "-0.07794627", "-0.6731024", "-0.06514954", "0.076365605", "0.20761706", "0.2901612", "-0.008207682", "0.6165769", "0.17798929", "0.593763", "-0.37926197", "0.10466149", "-0.5191051", "0.25185075", "-0.52825207", "-0.45337614", "-0.1036488", "-0.31783956", "0.09864601", "-0.68003744", "0.19848551", "0.04214779", "-0.025648791", "0.0715775", "-0.06548665", "-0.23561548", "0.22663924", "0.043973174", "0.2915631", "0.47464564", "0.026855327", "-0.5280845", "1.4918116", "0.058408", "-1.4917691", "0.06009029", "-1.5997316", "-0.15165414", "0.0045802156", "0.14460595", "-0.06560968", "0.12123358", "0.09815791", "0.36740935", "-0.09301566", "0.076407075", "0.12973535", "-0.24584906", "-0.10995677", "0.35560295", "-0.78405136", "0.20530179", "0.36085218", "0.2781133", "0.04997599", "-0.29381642", "0.17273574", "0.49534726", "0.13404624", "0.03982766", "0.07531728", "0.49361926", "-0.16221975", "1.1969903", "0.04243815", "0.3428748", "0.048055608", "-0.3717127", "-0.5539146", "-0.7356999", "-1.0822597", "0.4927349", "0.25454545", "0.14960323", "0.35263863", "0.15945098", "-0.31271186", "-0.98629445", "0.13542137", "-0.49411073", "-0.253431", "0.05510261", "0.32579646", "0.094211295", "0.11646549", "-0.08485776", "0.21158624", "-0.32167542", "0.37617847", "0.048189636", "1.0288615", "0.6065309", "0.227717", "0.08349899", "0.22276221", "0.40633526", "-0.8322772", "-0.18688436", "0.5778924", "0.2178502", "-0.45306644", "0.14419354", "0.36573675", "0.3262663", "0.22726119", "0.18608475", "0.3892505", "-0.0049389307", "-0.1002262", "-0.37855244", "0.28705636", "0.09328282", "-0.6550771", "-0.30495405", "-0.0010306435", "-0.034324624", "-0.3303759", "0.33229938", "-0.3071447", "0.14550404", "-0.009864888", "-0.7491012", "0.0002549888", "-0.3725722", "-0.5686846", "0.1455445", "0.0735304", "0.24244559", "0.28046837", "-0.055783514", "0.15526916", "-0.26889873", "-0.08614023", "-0.015375318", "0.1434308", "0.1647988", "-0.40594813", "0.095052816", "-0.4763564", "-0.77654237", "0.18674251", "0.15096438", "0.25409105", "-0.33479664", "-0.03653589", "0.19583508", "0.091150925", "0.037154526", "0.13200244", "-0.06544825", "-0.21931724", "0.010366374", "1.1695579", "0.5251831", "0.35250157", "0.0014727497", "-0.032907005", "0.7816801", "-0.07017355", "0.89632654", "-0.2658259", "0.03371908", "0.00975393", "0.33106047", "-0.26632947", "-0.26522836", "-0.5918896", "-0.15474984", "0.22910297", "0.37209165", "0.54369926", "-0.3527829", "0.36809576", "0.16567299", "0.4925976", "0.21878381", "-0.15995088", "0.29118037", "0.120839305", "-1.0236639", "0.43795556", "-0.99914205", "-0.2665393", "0.14273451", "-0.21141316", "0.0019612366", "0.41098228", "0.58961695", "-0.9809327", "0.29446158", "-0.033449903", "-0.53602374", "0.15242998", "-0.05152911", "-0.27090016", "0.25325084", "0.5557786", "0.09148431", "0.25098315", "-0.26066267", "0.25175643", "0.36046058", "-0.5535174", "0.3519643", "-0.030128215", "-0.11656012", "-0.35562333", "-0.0018559482", "0.10669131", "-0.17980398", "0.20791574", "-0.95512235", "-0.10872098", "0.18764272", "0.1673964", "-0.28439924", "2.1166234", "-0.194879", "-0.2775508", "0.49471456", "0.19652663", "1.4665805", "0.12902395", "-0.17947483", "-0.11132219", "0.3493959", "-0.2853966", "0.016917251", "0.1966594", "0.07705048", "0.33970055", "-0.10900599", "-0.07719419", "0.3784881", "0.34342247", "-0.11076974", "-0.49857277", "0.45351753", "-0.1704817", "-0.033201892", "0.34041965", "0.14491798", "0.30312788", "-0.38176286", "0.08477986", "0.076531775", "-0.013662366", "-0.054213013", "-0.94254625", "0.046690833", "0.035443824", "0.4229959", "-0.08998689", "0.1941809", "0.14576387", "0.424594", "-0.19079503", "0.05957965", "0.36086056", "-0.25590152", "0.7166203", "0.0128812855", "-0.082503386", "-0.4528142", "0.29892367", "-0.5014806", "0.27346894", "-0.28534272", "-1.2231336", "0.25475678", "0.6254446", "0.45877802", "-0.406522", "-0.044761214", "0.2603183", "-0.84263396", "0.10660696", "0.35246083", "-0.12574588", "-0.31122166", "-0.22845565", "-0.030979736", "-0.5458937", "0.13982311", "-0.29264608", "-0.5717846", "-0.46307796", "-0.24462523", "0.5709937", "-0.11228435", "0.18698093", "0.17175148", "-0.13811328", "-0.13300502", "-0.02021562", "0.29292047", "-0.010005586", "0.10618571", "-1.4717574", "-0.007432689", "-0.09918678", "-0.5129123", "0.22569366", "0.35084105", "-0.70856386", "-0.41440383", "0.15874864", "0.4246784", "-0.105048716", "0.23223631", "0.29336596", "-0.012566023", "-0.1976297", "0.1091226", "0.062023625", "0.23561521", "0.32863182", "0.6418177", "-0.11138089", "-0.25780946", "0.05038145", "-0.31491467", "1.16252", "-0.19018854", "-0.013552661", "-0.73871124", "0.4565875", "0.27486035", "-0.18233322", "-0.16968484", "-0.08977158", "0.21866056", "-0.26774505", "0.68747634", "0.1829623", "0.27848297", "-0.31520292", "0.20501155", "-0.35496497", "0.1445418", "-0.6372759", "0.28195143", "0.08378003", "-0.4375368", "-0.45995227", "1.1954768", "0.0067435005", "0.6520679", "-0.27051273", "-0.4320681", "-0.9735565", "-0.1463324", "-0.1719759", "-0.3765726", "0.0921438", "-0.3418825", "-0.043899268", "-0.29932308", "-0.37406063", "0.07394099", "0.42889336", "0.16342156", "-0.17255837", "0.24383795", "-0.26601374", "-0.05187129", "0.19744599", "0.028267814", "-0.08471735", "-0.091579445", "0.2426408", "0.23449406", "0.21624415", "0.42794275", "-0.8866947", "-0.1920977", "1.1530849", "0.12348881", "1.0414779", "0.07608008", "-0.13101208", "-0.4377254", "0.13020168", "0.25053567", "-0.15013081", "0.37254316", "-0.20892826", "0.2931205", "0.096182644", "-0.38940647", "-0.53846455", "0.079884075", "-0.048103318", "0.45148122", "0.25946516", "-0.252829", "0.24435161", "0.45340592", "0.12948579", "-0.8530772", "0.6578657", "0.09813436", "-0.04252533", "0.013108491", "0.04147468", "0.08014294", "0.27499416", "-0.3353035", "-0.32775602", "-0.7351741", "-0.82916087", "-0.264867", "0.46184573", "0.31668252", "-0.06545351", "-0.08655613", "0.08013704", "-0.30945355", "1.5689244", "0.07805179", "1.2205938", "-0.22451411", "0.19946484", "0.12819338", "-0.107967354", "-0.2774111", "0.16147684", "0.0073347716", "-0.68860877", "-0.14240816", "-0.21219824", "0.5205536", "0.1675754", "-0.012144707", "-0.5084529", "0.04944195", "-0.15694883", "-0.28246748", "-0.028680936", "0.41258952", "0.18200691", "0.2666871", "-0.53683895", "-0.14526021", "-0.5114367", "-0.28274235", "-0.8914865", "-0.4276273", "-0.54557467", "-0.25469956", "-0.9360404", "0.5851447", "-0.43255737", "0.30883694", "-0.056073446", "-0.14703552", "-0.69972044", "0.1502524", "-0.6853482", "0.09684698", "-0.082002014", "-0.01612763", "-0.08390203", "0.15493418", "0.50993186", "0.63786834", "0.40765512", "-0.24711265", "-0.6647257", "0.0471344", "-0.25448087", "0.08187305", "-0.2043036", "-0.33341277", "0.19091755", "0.3664639", "0.25445172", "-0.08764591", "-0.24724676", "-0.105060615", "-0.2168903", "0.133453", "0.19991933", "0.2729921", "0.18889655", "-0.21867475", "-0.35343874", "0.41479105", "0.023191826", "-0.4973114", "-0.1601267", "0.36079517", "0.34722513", "-0.48411375", "-0.17443012", "-0.20144065", "-0.19739418", "0.40753937", "-0.4157393", "0.56515354", "-1.16253", "0.3331892", "0.019912515", "0.14895909", "0.1737332", "-0.42892653", "-0.03968718", "0.41303733", "0.6569587", "-0.21983384", "0.529334", "0.30322802", "0.04223266", "-0.65171146", "-0.43643177", "0.6308322", "0.15431274", "-0.0510484", "-0.020258868", "0.55627", "-0.2095868", "-0.3163972", "-0.14105794", "0.4686923", "-0.3793287", "-0.1811391", "-0.5719226", "0.010383013", "-1.1619246", "0.013174373", "-0.38864103", "-0.117663085", "-0.68120164", "0.16050977", "0.16366701", "-0.801015", "-0.66159046", "0.06061487", "0.034074917", "-0.18662871", "0.10679934", "-0.0634472", "-0.18033446", "-0.15820648", "-0.45240104", "0.119997196", "0.6850993", "-0.06058032", "0.5163379", "0.67859375", "-0.5226601", "-0.012379432", "0.06953269", "-0.2501148", "1.3125281", "-0.19202428", "0.3836215", "0.22142018", "-0.39608195", "-0.17965418", "-0.14916207", "1.0594212", "-0.21282545", "0.112751365", "0.42255792", "-0.021734823", "0.22512051", "0.14281125", "0.338433", "0.82970554", "-0.30947745", "-0.042964395", "-0.4481423", "-0.17254077", "0.30587673", "0.08234766", "0.20777087", "-0.76754004", "-0.06299833", "-0.08015844", "0.72567713", "0.23180446", "-0.04027681", "0.4984266", "0.56156856", "-0.2312244", "0.5100029", "0.26900184", "-0.33244607", "0.08747289", "-0.42463925", "-0.027206926", "0.27951846", "-0.28437367", "0.40832272", "-0.20116244", "0.13783145", "-0.49131274", "0.08695101", "0.3600267", "0.49830908", "-0.5921329", "-0.19416505", "0.56519145", "-0.3759928", "-0.1573373", "-0.09728386", "0.05413943", "0.3494452", "-0.97169805", "0.33221588", "-0.23885556", "0.61272615", "0.074442156", "0.26139337", "0.2976477", "-0.07715894", "0.013484609", "-0.041382585", "0.23898847", "0.22153376", "-0.01977032", "0.047586296", "0.25534084", "-0.3500757", "0.09502789", "0.7410399", "1.889917", "0.17848001", "0.60711366", "0.57228106", "-0.058660306", "0.24380113", "-0.1715261", "-0.56856775", "0.22842674", "-0.3219932", "0.28926596", "0.7137055", "0.13694167", "0.04472742", "0.20059162", "0.2021709", "-0.3217887", "0.01897024", "0.18032663", "0.322882", "-0.85089976", "-0.72487164", "-0.115201175", "0.54209715", "-0.5010408", "0.0029090121", "0.26565874", "0.1470854", "0.7236495", "-0.51035815", "-0.15592577", "0.22565497", "0.10310418", "0.03578972", "-0.297237", "0.13800687", "-0.14702754", "-0.08189708", "0.41683748", "-0.30049944", "-0.60166967", "0.0112629775", "-0.01968453", "0.32175842", "-0.33666885", "-0.26873252", "0.22205429", "0.36587554", "-0.36514437", "0.1450362", "0.14941102", "-0.03788297", "0.11179553", "0.0779833", "-0.3564208", "0.4003057", "-0.2376787", "-0.20782137", "-0.14074144", "0.069716774", "0.064171985", "0.016261688", "-0.20170492", "0.17873369", "0.109232016", "0.17550454", "0.6512742", "-0.24905352", "-0.15209734", "0.054644056", "-0.44679588", "-0.1992109", "-0.0920622", "-0.005319409", "0.45899305", "-0.041305024", "-0.24302718", "1.6975754", "-0.08985049", "-0.18489008", "-0.087253585", "0.19105028", "-0.0014259494", "-0.44926757", "-0.10346927", "-0.3175819", "-0.53464395", "0.46209037", "0.61409575", "-0.26611847", "0.3186198", "-0.31181827", "-0.311956", "0.0713505", "0.39324674", "0.4310584", "0.09170714", "0.26552638", "0.23725094", "-0.29814646", "-0.3642267", "0.597338", "0.41041318", "-0.69596493", "-0.2476837", "0.23606783", "0.53624433", "0.33710456", "-0.60457635", "-0.011480674", "-0.5298086", "-0.91599584", "0.34158194", "-0.35367563", "0.5917534", "0.51869094", "1.0506632", "0.36295688", "0.32611406", "-0.16284008", "-0.38028407", "-0.3304724", "-0.4530647", "-0.6159791", "-0.05464901", "0.14222623", "-0.3770345", "0.048389893", "0.28220376", "0.18970819", "-0.26669076", "0.49846682", "0.0029101335", "0.26470602", "-0.49092332", "-0.25380856", "-0.13046616", "0.47174513", "-0.038646393", "-0.42319068", "-0.5365496", "-0.70750993", "-0.38407648", "0.005436142", "0.26276535", "0.11856167", "-1.1170175", "-0.5605941", "0.2702767", "0.12507878", "-0.45401862", "-0.20028271", "-0.58725554", "0.084972866", "0.35966372", "0.29693544", "0.40701726", "0.31411132", "-0.03899514", "-0.33132973", "-0.060828347", "0.354177", "0.53063524", "0.21706036", "0.2858557", "0.8939195", "0.1611409", "-0.27591065", "-0.11156571", "-0.122063555", "-0.41129214", "0.40860403", "0.16118586", "0.0042477734", "-0.241743", "0.22489712", "-0.09006968", "0.18186784", "0.16324161", "0.012652745", "0.16268007", "0.38135523", "0.61352414", "-0.3560134", "0.1978958", "0.25818744", "0.58029467", "-0.3338599", "-0.029357554", "-0.39231828", "-0.3003211", "0.1341765", "-0.1612131", "-0.0052123265", "0.21865179", "-0.027491925", "-0.3493055", "1.3027971", "-0.3735163", "-0.28208408", "0.13469683", "-0.63898915", "0.0026129629", "0.24226233", "-0.38956252", "-0.014258173", "0.41156533", "-0.4432498", "0.12031454", "0.05241041", "0.16572222", "0.42433566", "-0.6609775", "-0.28100297", "-0.48111778", "0.28567043", "0.27681223", "0.15014286", "0.1667806", "-0.20636502", "0.10050037", "-0.2677295", "-0.042927887", "0.15498932", "0.2145691", "0.064594276", "-0.35309568", "0.13233525", "-0.077634394", "0.00944497", "-0.27528536", "0.060556274", "0.5176918", "-0.2591614", "-0.049125448", "0.64865834", "-0.014613171", "0.17524837", "0.10560596", "-0.6348393", "-0.6336498", "0.7008051", "0.4462066", "-0.09749129", "0.16404825", "-0.19923985", "0.2269611", "0.4672694", "0.03987814", "0.10047323", "-0.53142536", "0.18762979", "-0.011034956", "0.11972017", "0.33211568", "-0.37670964", "0.27559924", "-0.52333736", "1.386991", "0.29907358", "-0.03110567", "-0.058481596", "0.10004846", "0.19568567", "-0.3697846", "-0.0696853", "-0.46134725", "0.3426042", "0.10590808", "-0.051197637", "-0.74734205", "-0.2613986", "0.08939603", "-0.16846588", "0.1126738", "-0.328802", "-0.7906588", "-0.49345285", "-0.92563486", "-0.62219983", "0.4379461", "0.34381527", "0.11584057", "0.057679985", "-0.0009334247", "-0.118971914", "-0.29631534", "0.39137995", "-0.18157561", "-0.25424084", "-0.12115896", "-0.09087488", "-0.24424222", "0.25772947", "-0.14724565", "-0.03145443", "0.11389525", "0.033140134", "-0.052440442", "-0.4702404", "-0.36246628", "0.55992085", "0.07675625", "-0.19214033", "0.2074775", "1.3743641", "-0.04543729", "0.28277984", "-0.69923955", "0.17364155", "0.24307372", "0.38943678", "0.16560683", "-0.09441231", "-0.0671612", "-0.95518744", "0.33630326", "0.35857457", "-0.018303663", "0.49103206", "0.25956354", "0.43868753", "0.7706023", "0.46024576", "-0.16610377", "0.17158929", "0.33104494", "-0.34821787", "-0.5133624", "0.33978003", "0.34569559", "-0.25969747", "-0.10893829", "0.4527796", "0.6577813", "-0.1719833", "0.98477906", "-0.35371417", "0.2421934", "0.16583376", "0.2790864", "0.4548639", "-0.2184762", "0.26383883", "0.0084180245", "-0.33851716", "-0.047603898", "-0.33364195", "0.5313615", "0.003425047", "0.34223357", "-0.30851153", "0.28881726", "-0.23629363", "-0.47894847", "0.21661012", "-0.5853147", "-0.20267081", "0.049819704", "0.22877507", "0.34137967", "0.17561416", "-0.38716692", "1.0822167", "0.15612334", "-0.23485966", "-0.015156051", "-0.14757842", "0.66591257", "-0.009124253", "0.3376451", "-0.36638775", "-0.76018685", "-0.14824803", "-0.28674597", "0.07642716", "-1.0132998", "-0.0875048", "0.5928605", "0.1999733", "-0.16879594", "-0.30181414", "0.24984325", "-0.18511416", "0.08384656", "0.16047035", "-0.112712614", "0.134494", "0.18515705", "-0.20696099", "0.78149277", "0.2114764", "0.28206587", "-0.26138693", "-0.06505173", "0.2852945", "-0.05741856", "-0.010311988", "-0.1040436", "0.32551816", "-0.01158648", "0.1629824", "-0.25004116", "0.29396585", "0.25826135", "0.036583133", "-0.34154403", "0.21652791", "-0.056758814", "0.09046835", "-0.3822171", "0.22745906", "0.17155111", "-0.08704942", "-1.0045605", "-0.6898814", "-0.2130161", "-0.53549486", "-0.45660406", "-0.8353056", "-0.45769235", "0.43994826", "0.026209319", "0.13621348", "-0.5573986", "1.1804103", "0.25987196", "0.024534184", "0.025952492", "0.7000208", "-0.015149586", "0.52021384", "0.86397094", "-0.39064896", "-0.20403981", "0.26684976", "0.11309958", "0.25962177", "-0.25558162", "0.14050037", "0.19607389", "-0.29723752", "0.3826069", "-0.28367406", "0.055846844", "0.24686606", "-0.44429314", "-0.5813052", "-0.22491486", "0.13370913", "-0.012782816", "0.04868918", "0.7038987", "0.7519688", "0.24990094", "-0.7722403", "-0.32139492", "0.18596388", "-0.4314964", "-0.01749115", "0.72073877", "0.05515776", "0.3953848", "0.21902567", "-0.1230344", "-0.27109224", "0.15721588", "-0.23762725", "-0.29456314", "0.1693609", "0.31436232", "0.052993238", "-0.2702391", "-0.20548826", "0.0014820228", "0.1251188", "-0.31109062", "0.05739704", "0.35601926", "0.25706232", "0.10931847", "-0.039347704", "-0.575497", "0.4355304", "-0.37682113", "-0.028513081", "0.56950784", "-0.19364105", "-0.14901184", "1.9063874", "-0.080268346", "0.1534189", "-0.013335172", "-0.31954658", "1.6265322", "-0.48021713", "-0.60864246", "0.25201222", "0.4048244", "-0.49420097", "-0.06141123", "-0.4499229", "-0.2194318", "0.5432021", "0.0077423947", "-0.24875283", "-0.14687221", "-0.15749879", "0.31486827", "0.39479592", "0.2965053", "-0.557921", "-0.4501823", "0.0949101", "-0.9790265", "-0.6189526", "0.22863697", "0.50724363", "-0.0644441", "0.17553635", "0.17029575", "0.37344503", "-0.06815546", "0.03813052", "0.35440955", "-0.19213581", "-0.083542146", "0.121408574", "0.43884036", "-0.38357773", "0.10477029", "0.3518581", "-0.1249106", "0.07008233", "0.244136", "0.025284907", "0.03827085", "0.07900997", "-0.16203552", "0.33609188", "0.34434634", "0.1745623", "-0.23026413", "0.33298808", "0.39053664", "0.31513903", "0.630555", "-1.1274552", "-0.24838689", "0.20224555", "-0.8278059", "0.004009157", "0.28340968", "0.052797873", "0.10021757", "-0.05091612", "-1.081097", "0.57266504", "0.051740702", "-0.24531275", "0.09525925", "0.4012668", "0.20242445", "-0.35927773", "0.11592035", "-0.7017851", "-0.36858448", "0.35772553", "0.3129107", "0.014958996", "-0.29120025", "0.41346693", "-0.2988872", "0.07023587", "-0.17226043", "-0.22809829", "-0.2581", "-0.05696342", "-0.05589814", "-0.10931665", "-0.43741634", "-0.1405856", "0.030825656", "-0.0664809", "-0.22742225", "-0.07222455", "0.13617432", "-0.0933218", "-0.25725153", "0.00013435309", "-0.16865683", "-0.0892501", "-0.09026365", "-0.0025453912", "0.077091", "-0.27871862", "-0.0761644", "0.055802938", "-0.030699555", "0.074250594", "0.08021801", "-0.2567111", "-0.064377375", "-0.00038078876", "-0.3530235", "-0.113665015", "-0.31263313", "-0.23105997", "0.10582794", "-0.22218359", "-0.119176984", "-0.06435886", "-0.121745415", "0.06554546", "0.05929747", "0.10021064", "-0.13350593", "-0.2921268", "-0.12162194", "-0.20934264", "0.12345271", "-0.31178442", "-0.43120202", "-0.26284418", "-0.033535924", "-0.102733314", "-0.13235039", "-0.27472287", "-0.033470225", "0.055007327", "-0.3744007", "-0.37217492", "-0.21278721", "-0.40471244", "-0.26984468", "0.2716786", "-0.14444186", "-0.5054337", "-0.039491333", "0.16588466", "-0.08424533", "-0.14216414", "-0.21001159", "-0.3756841", "-0.31319478", "-0.28763977", "-0.07157741", "-0.3953984", "-0.1199435", "-0.136282", "-0.05303041", "-0.064927496", "-0.41299075", "-0.057479814", "0.11866057", "-0.16792113", "-0.23686785", "-0.0658369", "-0.057290636", "-0.1630591", "-0.022387953", "-0.3364571", "-0.23140799", "-0.3617486", "-0.2004615", "-0.313226", "-0.37788314", "-0.35996857", "-0.09491707", "-0.07560635", "-0.07745893", "-0.4785679", "0.011932774", "-0.08325195", "-0.47225624", "-0.3937971", "0.31991234", "-0.010697015", "0.17069964", "0.0038111133", "0.49212024", "0.3534127", "-1.4448274", "-0.73988044", "-0.31996152", "0.4407902", "0.10717687", "-0.4550878", "0.56950736", "0.15469125", "-0.3452062", "0.39184824", "-0.24577479", "0.19642037", "-0.2907638", "-2.3090434", "-0.21390736", "0.01040319", "0.28668284", "0.25327548", "0.40819705", "0.24641408", "0.2161248", "0.18085971", "0.22584021", "-2.12029", "0.22121109", "0.23871133", "0.21317373", "0.2013557", "0.35796064", "-0.084134534", "0.15249257", "0.19526428", "0.43009388", "-0.20039102", "0.4293275", "-0.9184042", "-0.95893645", "-0.17079583", "-0.20617811", "0.27870256", "0.21299575", "-0.015977541", "0.33449823", "0.37885252", "-0.6783406", "-0.07860269", "-1.5875968", "0.15181486", "-0.09600414", "0.16168402", "0.119126335", "0.37330788", "-1.1312324", "0.19811146", "0.24944127", "0.06114349", "0.104333155", "-1.4902688", "0.05912939", "0.51142764", "0.28849247", "-0.027301552", "0.33947757", "-0.19079126", "0.70295644", "-0.101859234", "-0.34418666", "0.3672784", "0.0754788", "-1.1830059", "-1.2918108", "0.1500832", "0.64862984", "0.2326097", "0.18830656", "-1.2914196", "-0.06379733", "0.08036544", "0.040581126", "0.1853227", "0.1422973", "-0.791047", "-0.21595763", "0.41898656", "-0.91722924", "0.29625246", "0.06457948", "-1.3487457", "0.50774956", "-0.18306069", "0.3212857", "0.046102274", "-0.7243716", "0.20980944", "-0.6040175", "0.21095347", "-0.42567465", "0.1991799", "0.34173504", "0.27833578", "-0.11999999", "-0.63140315", "0.32315964", "-0.075442515", "0.30185375", "-1.3102088", "0.13322066", "-0.08466924", "-0.1572615", "0.33538863", "-0.4105565", "0.19758917", "0.30948833", "-1.5943732", "-0.032046724", "0.19216779", "-0.15798153", "0.07396239", "0.17782775", "0.2850852", "-1.5798975", "0.0639843", "-0.6248028", "0.21421562", "0.17248596", "-0.10927523", "0.115235955", "0.18022019", "0.13873051", "0.19487663", "0.14990826", "0.108887374", "0.16284312", "0.1515769", "0.14794382", "-2.449484", "-1.0879935", "0.37314847", "0.32043526", "0.1933127", "-0.1472663", "-0.06805609", "0.264572", "-1.2669989", "0.11565404", "-0.04751626", "-2.3997924", "-0.033146225", "-0.023216812", "-0.04509591", "-0.0729766", "-0.0052894545", "-0.028900381", "-0.047257785", "0.18972486", "-0.006327426", "-0.80202645", "-1.1593064", "0.18864727", "0.28563094", "0.10239125", "-0.5190092", "0.04427094", "0.18304308", "-2.0879798", "0.14210454", "0.112533584", "0.18782094", "0.12970278", "0.06192908", "0.14864", "0.10507626", "0.082606286", "0.15259898", "0.14037825", "0.12806796", "-0.05997959", "0.15163244", "0.10274839", "0.13004526", "-2.7263145", "-1.9169202", "0.15245904", "0.062059853", "0.08591189", "0.11129911", "0.10763153", "0.11196974", "0.14098", "0.14411092", "0.35403174", "-0.5371314", "-0.8440154", "-1.0293947", "0.036118858", "0.045164086", "0.0953528", "0.09412895", "0.15485881", "0.11447763", "0.06655229", "0.18551038", "0.16145948", "0.07051307", "-2.3025374", "0.1908802", "0.19830362", "0.17885391", "0.25144252", "0.056315143", "0.3636915", "-0.65174973", "-0.47301033", "0.06768648", "0.29651764", "0.069437385", "-0.36777934", "-0.38748956", "0.027716879", "0.17398386", "-1.1984007", "0.36055025", "0.2394302", "0.12867238", "-0.4580536", "0.28444314", "0.12321427", "0.08906833", "0.07504677", "-2.6423936", "0.09955257", "0.084576845", "0.0884944", "0.08778074", "0.12697913", "0.32188815", "0.42141882", "0.53444463", "-0.03710287", "-1.5481533", "0.39388156", "-0.5605118", "-0.33033964", "0.3789543", "0.28430438", "0.28935197", "0.31633046", "-1.278182", "-0.21857612", "-0.107388586", "-0.30107474", "0.24154098", "0.050443374", "-0.004957026", "0.18792535", "0.056421164", "-1.0741736", "0.20037283", "-0.05871346", "0.009599406", "0.52240527", "-1.2036772", "-0.14149922", "-1.2981282", "-0.4249049", "0.3648028", "-0.1268528", "0.25487858", "0.10298475", "0.40543526", "0.22569975", "0.15097879", "0.10584922", "0.1756809", "0.07855901", "0.18867618", "0.14420408", "-2.3448555", "0.11151458", "0.20021923", "-0.93184716", "0.30615884", "0.3562664", "0.117114305", "-0.70923394", "-0.9104018", "0.35572627", "0.3081459", "0.41114724", "-1.1115178", "0.09634393", "0.4179881", "-0.602681", "0.7841078", "-0.06807486", "0.33950076", "-0.61102307", "-0.33223337", "-0.57038033", "-0.2354711", "0.29400048", "-0.5300227", "0.47878647", "-0.37024283", "0.22504795", "-0.3119585", "-0.1712371", "-0.8458648", "0.41565576", "0.011002268", "-0.39887756", "-1.3504843", "-0.0825126", "0.55776817", "0.28626838", "-0.025758058", "0.2635523", "0.38231185", "-0.17988777", "0.29207814", "0.1771511", "-0.69175744", "0.24620473", "0.2807029", "-0.7756943", "0.19276842", "0.15796489", "0.14564545", "-1.0409336", "0.39931333", "-0.8857503", "-0.38920695", "-0.12392026", "0.13517569", "-0.55625516", "0.23225372", "-0.6318482", "-0.8420027", "0.24686167", "0.57292944", "-0.8475347", "0.41523257", "0.47956765", "0.12289317", "-0.28092375", "0.021685474", "-0.7620869", "0.099186786", "-0.26258317", "0.32419416", "-0.27591404", "-0.2638005", "-0.46488807", "-0.93827045", "0.2576349", "-0.060724284", "-1.103437", "0.32193965", "0.35536194", "0.30820492", "0.25386164", "-1.3205215", "-0.6591591", "-0.7554793", "0.78934413", "-0.089601606", "0.3686182", "0.29296532", "0.21375912", "0.32771003", "0.24545017", "0.05687003", "0.19816206", "0.24359632", "-2.5166733", "0.05412388", "0.080402225", "0.27669495", "0.2030804", "0.43111232", "0.3351971", "0.38540488", "0.22528832", "-0.288427", "-0.24570172", "-0.4339894", "0.011385343", "-1.0344319", "-2.0126517", "0.07550874", "0.06725437", "0.13225086", "0.06012209", "0.100543074", "0.13079706", "0.12093487", "0.13546363", "-0.016030163", "0.34751", "-1.6085758", "-0.5492792", "0.42771745", "0.15414654", "-0.43443432", "0.47562316", "-0.24145237", "-1.018466", "0.066223115", "0.24220008", "0.24955128", "0.46015817", "0.008218241", "-0.8174019", "0.1301688", "-0.3232777", "-0.9383755", "-0.018470285", "-1.8665102", "0.50065196", "-0.5013495", "0.33110178", "0.13099746", "0.09352145", "0.6977696", "0.19512057", "0.09532761", "-0.72257996", "0.084895976", "0.3607057", "0.33009636", "-1.4901129", "0.026046608", "0.17719105", "0.35460413", "0.3573362", "-0.04724916", "-3.0293503", "-0.18142633", "-0.92276764", "-0.16243294", "0.3743942", "-0.037840124", "0.05522528", "-1.620521", "0.31883413", "0.19890827", "0.07853418", "-0.37567753", "0.09402867", "0.15739334", "-0.32859436", "-0.003605335", "0.14297195", "0.19470881", "0.051949155", "0.14070508", "0.07044975", "0.01978593", "-1.8818762", "0.090970404", "0.2329279", "0.042509165", "0.2566875", "-0.46998695", "0.5056567", "0.2617584", "-0.32546446", "-0.91416067", "-0.12237391", "0.13788629", "0.107790895", "-2.1988292", "0.15296234", "0.12812093", "0.12086197", "0.17500599", "0.23402363", "0.1400034", "0.17537", "0.017251413", "0.12287629", "-1.7706064", "-0.07138502", "0.1822892", "0.13899857", "-0.048735972", "-0.48278925", "0.13781492", "0.34137067", "-0.21999314", "0.06932308", "0.09060861", "0.033329237", "-0.36185035", "-1.4973258", "0.45424312", "0.32206836", "-0.408453", "0.0477244", "0.2852478", "0.060131665", "0.36769456", "-1.0200677", "-1.2799729", "0.041471552", "0.24517477", "0.29117173", "0.2181154", "0.21350695", "-0.4663168", "0.31438413", "-0.11362106", "-1.3692628", "-0.7435045", "0.07860108", "0.099595346", "0.13626246", "0.036989506", "0.06824117", "-0.41379303", "0.13164897", "-1.7733191", "0.054559857", "0.52182174", "0.11201061", "0.42321286", "0.3667387", "-1.3864647", "0.3065349", "0.15648176", "0.25156456", "-1.1078414", "0.16642928", "0.23280326", "-1.9973973", "0.33506864", "0.28469893", "0.3159921", "-0.2893683", "0.18616654", "0.13609073", "0.18965438", "-0.08947895", "0.12651709", "-0.02453425", "0.20908147", "-1.8192859", "0.14663927", "-0.39776784", "0.018276334", "0.12844041", "0.0007396416", "0.10172979", "0.15997002", "0.11127382", "0.1648463", "-1.7274089", "0.05871662", "0.1854129", "-0.16531229", "-0.059687346", "-1.580982", "0.3503694", "0.6435611", "-0.16928573", "0.16756044", "0.45292762", "-0.70936334", "0.103858516", "-1.714505", "0.09972249", "-1.0195355", "0.15729015", "0.08412972", "0.014711184", "0.10977392", "0.19529545", "0.21632496", "0.20698051", "0.33077577", "0.06515885", "0.30566734", "0.31784493", "-0.70819145", "-0.38394344", "-0.91862106", "-0.55581427", "-0.5699443", "-0.9177591", "0.26238918", "0.5524702", "0.33587202", "0.083087176", "0.010509816", "0.12651037", "-0.61611164", "0.5024368", "0.54387623", "-0.59142536", "0.3193941", "-0.51697385", "-1.0099261", "0.36560705", "0.25238565", "0.37377447", "-0.00022795594", "-1.2148262", "0.41152772", "0.54123604", "-0.49328557", "0.25882137", "-1.0617617", "0.18056679", "0.35451078", "0.37857673", "-0.7031156", "0.5502789", "0.027256181", "0.3415397", "0.23999996", "-1.1638604", "-1.0569446", "0.37260875", "0.4784326", "0.35595116", "0.28245318", "-0.3964648", "-0.69391465", "-0.519108", "0.18830223", "-1.0378231", "0.38523462", "-0.5920515", "-0.4129787", "-0.30687213", "0.19842625", "0.2051323", "-0.37371573", "-0.817002", "0.61922085", "-0.96063656", "0.22936457", "0.079643145", "-0.1505414", "0.10531113", "0.15763444", "0.2104136", "0.30265915", "-0.70020676", "0.8441258", "-0.43943828", "-1.2172495", "-0.29860997", "-0.13597342", "-2.413722", "0.16303521", "0.44631076", "0.7473265", "0.16516608", "-0.16625", "0.14999148", "0.16269864", "-0.2986423", "-0.5103717", "-1.2588395", "0.42605016", "0.22964014", "-1.9162751", "0.19471677", "0.13249694", "0.19979614", "0.1644387", "0.2020835", "0.21862072", "0.17966594", "0.11689667", "0.0600445", "-0.5408928", "-0.24234055", "0.2782676", "-0.79757845", "0.42421687", "0.27466133", "-1.3173089", "0.18319604", "-1.8047109", "0.057328146", "0.20723432", "0.20034601", "0.16791628", "-0.074288", "0.065305725", "0.20935015", "0.13725112", "0.16319537", "-0.8309484", "-0.13777313", "0.37921444", "-1.4565065", "0.11250025", "0.453662", "0.49025655", "0.21018021", "0.3884921", "0.18797906", "-0.80946505", "0.15274842", "0.22252399", "0.34052688", "0.21238808", "-1.3345641", "0.1737607", "0.029907439", "0.23213018", "-0.9154816", "0.14150885", "0.15485369", "-0.84945416", "-0.21538022", "0.2997822", "-0.5575531", "0.47272894", "-0.47605395", "-0.23251967", "-0.7078133", "0.28197744", "0.07130874", "-0.09967244", "0.18854895", "0.45890135", "0.15041919", "0.21674913", "0.27787548", "-0.00784017", "-1.2112492", "-0.6706774", "0.31851947", "0.32421482", "0.25940606", "0.26904178", "-0.07273888", "-0.6694434", "0.30550784", "0.13469914", "0.19434987", "0.24219228", "0.20482776", "-0.62784237", "-0.08380786", "0.116425656", "0.13626151", "0.13993777", "0.13063036", "-2.5235353", "0.100329705", "0.079590574", "0.14561611", "0.17680483", "0.2626539", "-0.4756895", "0.586146", "0.3052304", "-0.9380276", "-0.06613518", "-0.85544485", "0.22183895", "0.32104835", "0.07819485", "0.34355488", "0.018827057", "0.10386423", "-0.09156801", "-0.24138115", "-2.2822652", "-0.15067449", "-1.0924141", "0.21041285", "0.30461448", "0.5838412", "-0.08021771", "0.13915312", "-0.5996235", "0.44295686", "-0.3635542", "0.27886418", "0.089787245", "0.10050481", "0.14732714", "-1.0062408", "0.040054347", "0.22008699", "-0.986548", "0.02753148", "-0.08719493", "0.053041063", "0.0058955117", "-0.11989565", "0.14303236", "-0.04208555", "-2.0513153", "-0.08954824", "-0.028559353", "0.122149125", "-0.4137006", "0.26815212", "0.33401778", "0.081419654", "0.36831906", "-0.5892536", "0.3871908", "-0.01592669", "0.18539359", "0.12808794", "-0.13895431", "-0.22411981", "-1.7299209", "0.15605192", "0.1901581", "0.2077459", "0.23540103", "-0.92969567", "0.14579554", "0.35261512", "-1.5409411", "-0.37358811", "0.29338202", "0.16689363", "0.11850884", "0.19692382", "-0.07827154", "0.46179786", "0.37265283", "-0.38192412", "-1.0476255", "0.41105595", "-0.44405532", "0.33715725", "0.3569466", "0.102334045", "-0.013966001", "0.10291451", "0.04594237", "0.009291009", "-0.13859044", "-1.4783251", "0.18443145", "-0.39193574", "-0.31505188", "-0.18740055", "0.2827351", "-0.28331313", "0.374859", "-0.029537193", "0.46249968", "-1.005297", "0.09498376", "-1.1339695", "-0.6768935", "0.14188838", "0.32472044", "0.2357323", "0.5940712", "-0.41567752", "-0.097716264", "0.28432602", "0.56981623", "0.22266866", "-1.3471355", "0.35520723", "0.5115142", "-0.265068", "-0.9592532", "-0.48304346", "0.61957586", "0.23231827", "-0.91545266", "-1.0817727", "0.36516753", "-0.29024485", "-0.28690305", "0.08888466", "-0.008413967", "0.057005342", "-1.294098", "0.33112144", "-0.84097266", "-0.047212746", "0.47015864", "-0.2610487", "0.34622204", "0.39968964", "0.007996377", "0.09914159", "-0.11221175", "0.0784606", "-0.13192953", "0.24132606", "-0.096061535", "0.085019276", "-0.29323003", "0.049806"]